9996 16
the -0.10055687 0.0852859 -0.02698022 -0.008763661 0.015274854 -0.0338542 0.06371115 -0.09083665 -0.04965825 0.031906407 -0.0057081673 0.049975343 -0.01545619 -0.0299638 0.023474019 0.030493788
and -0.053227194 0.1388894 -0.040713884 -0.011122803 0.0051802383 0.026630754 0.057343934 -0.039586652 -0.02502741 -0.01725711 -0.006691788 0.025517073 0.0002811006 -0.0067540105 0.071506254 0.07561414
a 0.010531121 0.071453825 0.014950774 0.015007631 0.07436892 -0.022539161 0.04960679 -0.01533665 -0.044243418 0.012132883 -0.024584873 0.043046862 -0.07034215 -0.10011073 -0.030491382 -0.023273297
of -0.042602725 0.11318424 0.034749158 0.011531762 -0.0019198911 0.0028297866 0.073108844 -0.13637783 0.014801211 -0.029592145 0.03575161 0.12721145 0.01201936 -0.037919786 -0.046973586 0.027504912
to -0.11043495 0.09214033 0.056514587 0.018364396 -0.008660476 -0.0052766213 0.019869773 -0.096193716 0.016570808 0.0032825305 -0.001276812 0.024467103 0.014439127 -0.023820097 0.07086698 0.010241968
is -0.0510669 0.034756564 -0.04087705 0.027431272 0.008001324 -0.009441758 0.04029072 -0.07786051 -0.061271474 -0.01628667 -0.057324987 -0.0014865664 -0.108789414 -0.109575756 -0.034592357 0.08602544
br -0.064345755 0.08509777 0.081109956 -0.003926205 0.0408161 0.05582425 0.02077116 -0.08510994 0.050432924 -0.042736232 0.039401263 0.078831844 0.01458058 -0.017953856 0.0075761885 -0.00266785
in -0.042933166 0.06527071 -0.0077165468 0.08613259 0.039161775 -0.03704662 0.021160126 -0.1029748 -0.01996601 0.0028626947 0.0023974974 -0.021313205 -0.08251598 -0.06525841 0.033791207 0.109023266
it -0.05255827 0.07325968 0.058542788 0.056318678 0.040015075 0.02862599 0.03339235 -0.07192621 0.020944983 -0.03726218 0.042214442 0.07418786 -0.0085732825 -0.05364549 0.024106966 -0.016367184
i -0.094742686 0.039693724 0.03772808 -0.025794273 -0.016133055 0.020957042 -0.055629138 -0.0718484 0.07494815 -0.0524805 0.05616561 0.011461468 0.042310834 0.048559334 0.041052636 0.0019799857
this -0.046004273 0.16725875 0.12472134 -0.0021109493 0.072091445 -0.020383274 -0.0015526693 -0.17767239 0.04593544 -0.028776433 0.0704056 0.031230617 0.048780326 0.03700086 0.03453262 0.066153206
that -0.07276235 0.1361704 0.028057907 0.12029094 0.04356873 -0.034226514 -0.020842146 -0.12706311 0.028787825 0.008946312 -0.025587568 -0.065048374 0.031225018 -0.035533357 0.07609249 0.08996138
was -0.011168775 0.03007772 0.002922261 0.053221557 0.031152494 0.028626984 -0.020084845 -0.14203016 -0.031940106 0.0026433722 -0.030620635 0.02244652 0.036782287 -0.0482638 -0.032537162 -0.026380416
as -0.013590732 0.15429364 -0.004793536 0.063488945 -0.0049739177 -0.033300135 -0.014889051 -0.07280368 0.00041828092 -0.06149333 0.064068444 -0.030451562 0.007948061 -0.027525352 -0.0042529902 0.062954456
for -0.066420235 0.077078454 0.038187064 -0.012685271 -0.0003755755 0.02908339 -0.074516684 -0.09631386 -0.035294954 -0.005925594 -0.001062763 0.0013988722 0.010301491 0.0051914114 0.01448372 0.014361768
with -0.08312511 0.14924295 0.058557454 0.04078828 0.020511806 -0.03421427 -0.070045725 -0.06708011 0.061768368 -0.030148722 0.028627736 -0.020008618 0.0023141096 0.037269007 0.061170895 0.08935312
movie 0.035205796 0.15954432 0.06392535 -0.052901346 0.054733317 0.019820083 0.02977032 -0.1987595 -0.010756061 -0.071862675 -0.015651911 0.05451418 0.025212757 -0.048875723 -0.02760639 0.0155265145
but 0.030194504 0.012264679 0.011942608 -0.014086767 -0.04812023 -0.0391923 0.04287543 -0.08216456 -0.020515585 0.02800935 -0.055948693 0.061825197 -0.09989222 -0.0717723 -0.07415561 -0.04509931
film -0.080091044 0.12568508 0.015795615 0.0032125793 0.08461365 -0.008313544 -0.024224276 -0.012921187 0.040218312 -0.04709438 0.05823093 0.05015227 -0.025994642 -0.009952876 -0.017104968 -0.048352167
on -0.09864913 0.10312028 0.053813834 0.017102182 0.010838064 -0.007088349 -0.10209608 -0.13358742 0.06299305 -0.045798037 -0.004862706 -0.05187406 0.060118362 0.06870063 0.08476723 0.024379248
not -0.12887163 0.07612543 0.016503965 0.051066928 -0.011932661 -0.10257462 -0.02884272 -0.06803114 -0.0048792306 0.00797256 0.026715863 0.031596716 -0.029104302 -0.03340493 0.073906675 0.09560502
you -0.01026545 0.009600131 -0.0036954435 0.044289865 -0.05153006 0.043599848 0.09258585 -0.008000792 -0.055155706 0.00954543 0.013409738 -0.010840317 -0.031913426 -0.08146142 0.056618694 -0.0098648975
are -0.06058907 0.10673035 0.0879376 0.014394672 0.0555464 0.035886295 -0.06467691 -0.022688255 0.0506928 -0.07363058 0.07879027 0.033996217 0.022997757 -0.0025222148 0.078790605 0.005388903
his -0.011449255 -0.011950708 0.0037489256 0.074107945 0.0383284 0.035511278 0.020198207 -0.07885246 -0.05558989 0.061514318 -0.037755564 0.032074325 -0.040908676 -0.05716939 -0.089444846 0.03211523
have -0.11795182 0.14928833 0.046678487 0.014978915 0.061116003 -0.017412962 -0.118381776 -0.04935438 0.048407238 0.008030052 0.021637723 -0.0046277014 0.00067059713 0.014347274 0.12395017 0.05515541
he -0.08394851 0.12087165 0.03735377 -0.0079035135 0.012759876 -0.0115159005 -0.004233318 -0.07902389 0.018346565 0.01034618 -0.01800718 -0.025469309 0.0463046 0.036938705 0.08282283 0.0074531077
be -0.061905276 0.07265615 0.04972919 -0.0065978332 -0.007364763 0.0015273682 0.0074701817 -0.09838316 0.041082677 0.009914488 0.026647206 0.016080828 0.009157417 0.005386533 0.019538477 -0.0078167785
one 0.0011197357 0.078593925 -0.07299701 0.033231236 -0.038874112 -0.025954885 0.050386306 -0.12822175 -0.027655605 0.052884612 -0.047727637 0.09842222 -0.038425043 -0.09482764 0.047437966 -0.0069229025
all -0.09790384 0.083693504 -0.03615784 0.040640824 0.027001642 -0.02709852 0.03311012 -0.059361186 -0.0658353 -0.008990954 -0.03416425 -0.0089677805 -0.07300599 -0.06763031 -0.021876924 0.06824472
at 0.0008926402 0.021270243 0.037115235 0.005199827 0.059862137 0.031550977 0.011100712 -0.11665818 0.037626427 -0.06281217 0.027138013 0.07397735 0.04023284 -0.053546578 -0.02731521 -0.014799377
by -0.09959861 0.059625737 0.041131347 0.00015093735 0.049823295 -0.04162043 -0.02027428 -0.033818513 0.04643798 0.011607264 0.012233583 0.0012403233 0.028209059 0.012659568 0.064231716 0.029057201
an -0.08057051 0.09259314 -0.033389986 0.1025974 -0.025021398 -0.083501995 -0.11571397 -0.11918285 0.059827354 -0.037011016 -0.09310458 -0.103090435 0.027604124 -0.0024781555 0.050993904 0.066572905
they -0.06128064 0.0082630105 0.007708418 -0.003778471 0.033036977 -0.053145234 -0.0021086726 -0.03353211 -0.024630407 0.0026985358 -0.003267619 0.0066475887 0.03378961 0.062495656 0.040378608 -0.03389418
who -0.12197106 -0.00935163 -0.022053802 0.09130641 -0.06916989 -0.03768527 -0.0636277 -0.0839527 -0.032501854 -0.050938305 0.005674782 -0.06526662 -0.011894487 -0.039845407 0.081408925 -0.0035122393
so -0.1670521 0.12840928 0.15905277 -0.05253252 0.09202244 0.05321386 -0.07931821 0.026816845 0.10935424 -0.07191854 0.10217853 0.11207054 0.08434196 0.09873448 0.09565469 -0.014168777
from -0.00453076 0.12035177 0.041668594 0.06259475 -0.006895415 -0.0135154845 -0.010134241 -0.08916962 0.007094999 -0.008178064 -0.022870123 0.03562743 -0.03450239 0.015758341 0.004542666 0.089533
like 0.03340698 -0.0962621 -0.08415695 0.001430866 0.008218477 0.030316656 0.13744822 0.023255559 -0.04384508 0.09358364 -0.020631092 0.07535942 -0.026131665 -0.06614502 -0.025250403 -0.03427796
her -0.03824257 0.00790802 0.026325678 -0.06509987 0.07328196 0.04316095 -0.0029568055 -0.0846167 0.023393251 -0.08202077 0.065906666 0.10807139 0.050831687 -0.062439762 -0.05111116 -0.005126192
or -0.08550057 0.10004514 0.09305573 -0.026108572 0.07041763 -0.08807146 -0.05174593 -0.062764384 0.02166373 -0.119306706 0.075592555 -0.02891861 0.12058884 0.016884597 0.042376656 0.102711484
just -0.029272282 0.030489514 0.08497729 -0.048330426 0.12399963 0.021820845 -0.023752775 0.033118617 0.08641585 -0.025857098 0.098587036 0.02924058 0.08581364 0.010865179 0.019414028 0.011314123
about -0.041740373 0.08053926 0.060662497 0.0002750012 0.0063870316 0.02028882 1.2161385e-05 0.06700785 -0.013936445 0.04271854 0.05219371 -0.07634943 0.03681546 0.028770326 0.022654869 -0.0068532694
it's -0.07585439 0.12954034 0.0800833 0.054016124 0.06220294 -0.012405488 -0.080315866 -0.15779696 0.037622645 -0.03753915 0.07812201 0.0363845 0.010969769 0.036896728 0.041927796 0.07147244
out -0.08616426 0.14437214 0.107517265 0.00057022204 0.063984774 0.057763837 0.037483558 -0.13889696 0.07206316 -0.08567468 0.13978828 0.16394836 0.111978866 -0.012421896 0.01235666 -0.06436581
has -0.11736836 0.09277265 0.027557995 -0.032663327 0.0072715897 -0.014425309 -0.08612714 -0.023632113 0.07091855 -0.0026486188 0.0089769205 -0.008331652 0.051038507 0.06774614 0.087109454 0.013999044
if -0.017614856 -0.017506145 -0.057839427 0.0195568 -0.041976944 0.047870684 0.013039246 -0.078989476 -0.052721765 0.017353863 -0.06616157 -0.039667625 -0.020806484 -0.05169125 -0.051251967 0.01991479
some -0.18868195 0.16776644 0.101326615 0.077267446 0.10584122 -0.10455511 -0.0956966 -0.11947747 0.10388282 -0.092363715 0.02864047 0.006463001 0.06771305 0.15305446 0.1233913 0.10061001
there -0.08988858 0.091743566 0.13060786 -0.012413723 0.0412208 0.03241418 -0.042361554 -0.03481118 0.061012194 -0.075467646 0.13481906 0.057311915 0.09735851 0.050744493 0.055318713 -0.004614766
what 0.032019593 -0.023462187 -0.07848579 0.084078975 -0.068868525 0.02027187 -0.04900352 -0.1226174 -0.04604202 0.0191716 -0.07307268 -0.06596567 -0.08503899 -0.013027901 -0.014305793 0.06832233
good 0.008671265 0.015587672 -0.055600327 0.024652328 -0.041883938 0.012509481 0.019358704 -0.07678422 -0.10687226 -0.005679011 -0.07888889 0.050690353 -0.08182128 -0.12956764 -0.025681498 0.00024912631
more -0.026439788 0.081143625 -0.018576147 0.023102414 -0.059545062 0.034797866 0.014675098 -0.03790828 0.030247742 0.052725103 -0.04043494 0.070134744 -0.013324756 -0.038624056 0.05192639 -0.016563335
when -0.10938342 0.045337845 -0.05689907 0.13503595 -0.090502076 -0.05735632 -0.04095718 -0.16768831 -0.10006454 0.06605609 -0.14856939 -0.08649979 -0.044094406 -0.022959737 0.09395038 0.074887104
very -0.06518632 0.041965134 0.0036528623 0.061457783 0.05996213 -0.026499713 -0.024921685 -0.0715385 0.06225375 -0.06759882 0.022692904 -0.014077209 0.026140759 0.07150992 0.024258815 0.04631446
up 0.015932754 0.048874363 0.018366905 -0.017379763 0.0020526028 -0.01264783 0.09797506 -0.0438932 -0.044402797 -0.0006115068 -0.03537899 0.052620858 -0.06435662 -0.10051087 -0.033937663 -0.013858723
no -0.043176178 0.059148554 0.11031721 -0.028937444 0.072982885 0.0227479 -0.03521575 -0.055339977 0.028940486 -0.088557534 0.09811877 0.096334964 0.1085917 0.0747957 0.032743786 -0.026389772
time -0.006074398 0.093632996 0.08018949 -0.03065622 0.036263384 -0.050334036 0.016873276 -0.13605241 -0.029459719 -0.15366322 0.02572067 0.13170174 0.010078796 0.015535546 0.0070022196 0.057352107
she -0.04115932 -0.018608889 -0.015718909 0.061767913 -0.05949303 -0.084063075 -0.032835376 -0.05754839 -0.058624875 0.036681477 -0.029954717 -0.055752788 -0.035428725 0.02969229 0.013394072 0.075735345
even -0.071653046 0.059951805 0.05261478 0.019258112 -0.0027256506 -0.0034253106 -0.057576526 -0.07988389 0.005524598 -0.030959586 -0.016058305 -0.060745157 0.09062501 0.03314429 0.089547455 0.0632337
my 0.002904258 -0.016727084 -0.025253484 0.025075851 0.053329818 -0.011047367 -0.018270941 0.0097852005 -0.031158414 0.024455212 -0.02789606 -0.04400995 -0.0019213445 -0.010360336 -0.02175475 0.07571339
would 0.09003617 -0.037530504 -0.04644199 0.011104625 -0.05930726 0.011518553 0.10673525 -0.027253043 -0.1002953 0.04709741 -0.08641674 0.062412817 -0.054286595 -0.07519393 -0.02704492 -0.015444805
which -0.13018718 0.09934596 -0.0031906548 0.08533739 0.004828534 -0.077989876 -0.021228299 0.010104698 0.05011337 -0.0027200107 -0.01685563 -0.06137215 -0.011036736 0.023723928 0.028111627 0.120031424
only -0.005514429 0.057993267 0.07537971 -0.0104813175 0.08920378 0.06270619 0.06401334 0.013659137 0.072435535 -0.056641627 0.102748096 0.093779966 0.05524413 0.07690421 0.040323976 0.03356074
story 0.051450834 -0.029185185 0.055153668 0.03673962 0.04244968 0.051833514 0.009519941 0.009654862 -0.030112643 0.038674384 0.00018304959 -0.0014988483 -0.006342533 -0.046403043 -0.08408369 0.0021056146
really 0.022687094 0.117738366 0.038637884 -0.03478804 0.07314817 -0.0017339725 0.030005677 -0.023804924 0.07200032 -0.060090646 0.079807386 0.09225645 0.046949014 0.052998498 0.03071919 0.0100388415
see -0.08925426 0.07731878 0.023639724 -0.015006196 0.049519207 0.038723435 -0.033827715 -0.043608297 0.0867496 -0.0881883 0.045143288 -0.024214394 0.054836277 -0.010249474 0.09731164 0.039453674
their 0.03592391 0.01798478 0.0019669845 -0.0011672657 -0.037726086 0.022070667 0.10400084 -0.035839327 -0.008305498 -0.01964888 -0.06471276 0.019566067 -0.061999165 -0.049502026 -0.029951949 0.056275208
had 0.05074215 -0.05090074 -0.033802237 -0.10730172 0.030552179 0.07400963 0.13479719 -0.004998006 -0.018256014 -0.04752414 0.06329948 0.14281434 -0.084583856 -0.094133094 -0.06921731 -0.112624995
can -0.017045913 0.020317327 -0.009396329 -0.015872158 0.019704714 0.0037671141 -0.012830781 0.00078013295 0.0695499 0.0010081434 0.062829964 -0.02811555 0.056736507 0.024008015 0.010029169 -0.016754348
were 0.039240297 -0.0042347 0.051319517 -0.062072437 0.08004249 0.04728102 -0.002586773 0.005839401 -0.020202843 -0.024625126 0.09386178 -0.012113809 0.033463076 0.04445013 -0.005501059 -0.010425882
me -0.060010746 0.11696091 0.116746955 -0.010310285 0.0624791 -0.061880916 -0.06301179 -0.09756152 0.11987835 -0.059885062 0.029502627 0.026496144 0.09322661 0.08830679 0.025307652 -0.00085132685
well 0.045817133 -0.09451579 -0.1081857 0.00033385816 0.019628521 0.080850825 0.1090616 0.062548764 -0.036449485 0.04006151 -0.018668756 0.018608008 -0.0851694 -0.15361524 -0.057178464 -0.088040486
than -0.050630778 0.043520063 -0.05337253 0.034755927 0.011562376 -0.045162793 0.013470513 -0.082817994 -0.031782277 0.01881786 -0.034227286 -0.016130103 -0.04090401 -0.023880973 0.065266214 0.027117152
we 0.14148927 -0.11406298 -0.017807137 -0.00876612 -0.024427656 0.059181303 0.08979236 -0.0771239 -0.075716324 0.043100245 0.033840466 0.06843856 -0.13001437 -0.07297904 -0.11742002 -0.15643065
much -0.021521734 0.033881333 -0.027675493 -0.021019649 -0.03735487 0.05247135 0.0027913593 0.000683167 0.036146257 -0.0107421875 0.00026200892 0.00015799807 -0.0023392884 -0.056260817 0.06297057 2.187895e-05
been -0.0018800905 0.044739056 -0.024163917 0.047141 -0.0074952436 0.019227937 0.06605943 -0.05481636 -0.017415427 0.060826447 -0.017793264 0.06962262 0.00408763 -0.08157401 -0.03315405 -0.048083767
bad -0.17252451 0.17681411 0.24504235 -0.11735877 0.24848057 0.05411923 -0.043848 -0.13729204 0.1929006 -0.2818372 0.2945188 0.19589005 0.20750251 0.17015585 0.09852123 0.04022108
get 0.011737731 -0.0140030235 0.03265127 -0.017718816 0.101848505 0.006451376 0.06000546 -0.028024847 0.05727885 -0.07829785 0.11462145 0.01608641 0.058007143 0.018585922 0.054707084 -0.012884335
will -0.060882464 0.06665144 0.022702489 0.018381624 0.030562373 -0.03755689 0.06667231 -0.008457797 0.04572183 -0.038028065 0.0256754 0.038568377 -0.06324647 -0.0066416766 0.024263406 0.016848415
do 0.01567209 0.054208476 0.03191942 0.0076006236 0.058300845 0.059513904 0.039434075 -0.08650559 0.029556813 -0.07084857 0.057033084 0.044990316 0.018803947 -0.0042866245 -0.063810214 -0.039582796
also -0.039996784 -0.018070327 -0.06733941 0.09029228 -0.049338005 -0.06825766 -0.030154109 -0.06609367 -0.049847286 0.07158705 -0.03995288 -0.02201149 -0.06644525 -0.04262542 0.053885434 0.02387341
into 0.005196864 0.081115395 -0.011945271 0.049829528 -0.025639607 -0.03878375 -0.031460833 -0.065981254 0.004851356 -0.041964833 0.07052646 -0.0061578583 0.0072579924 -0.012401303 0.00431922 0.04722564
people 0.09992281 0.036454927 -0.0013065956 -0.0022808837 -0.02920275 -0.0018828681 0.09391375 -0.0070454115 -0.06700202 0.041590057 0.014718067 0.0011755683 -0.056042824 -0.0696337 -0.098151825 -0.053554166
other -0.015248432 -0.032269638 0.016228443 -0.08544524 -0.0026428245 0.020673366 0.034426525 -0.010262169 -5.7268626e-06 -0.019167889 0.005771143 0.006790474 0.0041670906 0.024867138 0.025371483 -0.019186446
first 0.024801303 0.01951499 -0.016926877 0.07958621 -0.037236594 -0.06747959 0.017035484 -0.056291826 -0.038986407 0.02064134 -0.07588456 -0.056368656 -0.046759125 -0.080512576 -0.029740827 0.036625527
great -0.07082407 0.08335558 -0.05590314 0.1307359 -0.054384835 -0.0762963 -0.095513895 -0.1570147 -0.03510533 0.023866288 -0.039024435 -0.038647432 -0.022450734 -0.0659864 0.044498 0.13097064
because -0.08404143 0.11311723 0.061206885 -0.052808687 0.083676346 0.027905354 -0.13172473 0.07412086 0.1402018 -0.09490128 0.08328417 -0.0013026618 0.13728423 0.101935565 0.13963744 0.043621305
how -0.023797456 0.07828527 0.06409061 -0.06685841 0.10459672 0.06060158 0.044092212 -0.01072749 0.097607225 -0.041630033 0.046183538 0.06667514 0.105471 0.041552093 0.042954136 0.014492603
him 0.023203284 -0.011592099 -0.078639634 -0.0345349 0.0107395975 0.11363409 0.12527402 0.09521767 -0.02000131 0.06941513 -0.0259784 0.0789309 -0.10507352 -0.102284625 -0.049067523 -0.031070108
most 0.028128212 -0.015472391 -0.0029073735 0.04083958 -0.047013342 -0.06591829 0.04588991 -0.021794362 -0.036096852 0.06532143 -0.026854465 -0.010273223 -0.091774486 -0.06658524 -0.019729905 -0.020505123
don't -0.04257333 -0.01248195 -0.014415206 -0.03131572 0.006728855 0.043264132 0.03685606 0.032213733 -0.004836247 0.04294788 0.059168167 0.038323548 -0.041878607 0.048331253 -0.025522545 -0.03498719
made -0.09094682 0.044533532 0.061072256 0.0036641753 0.051269244 -0.013874229 -0.031484704 0.07984544 0.07209713 -0.035480395 0.07347133 -0.0023202875 0.07625184 0.08391237 0.037014358 0.026971042
its -0.009010367 -0.06652204 -0.014320842 0.03336313 -0.032284595 -0.004574037 0.036112696 -0.0031743706 -0.05799855 0.038330622 -0.034752008 0.04026103 -0.062054235 -0.1252505 -0.019957345 -0.049076114
then -0.051048443 0.027748376 -0.062455837 0.015084979 -0.008450344 0.00097251317 -0.03486801 -0.052524988 -0.08529105 0.0455288 0.0028666193 0.016946256 -0.0014717092 -0.041525323 0.009005386 0.019670006
way -0.13409577 0.22217733 0.011759771 0.14243744 -0.018200025 -0.17276122 -0.09638843 -0.061309118 0.017178861 -0.064529754 0.028141096 -0.08270705 0.10665934 0.09233046 0.1775812 0.118741125
make -0.020066427 0.096362405 0.12705971 -0.005842032 0.03264007 0.020677267 -0.035622645 0.08367823 0.07479679 -0.062597744 0.14223942 0.060285207 0.11544168 0.11644102 0.09396384 0.015482368
them 0.009023888 -0.07628757 -0.0927344 0.017734608 -0.035123378 0.018438801 0.10704441 0.0147346705 -0.058789235 0.078848906 -0.10615975 -0.045469318 -0.1332787 -0.10245777 -0.08684064 -0.1049405
too 0.029348833 0.018338684 -0.026899382 -0.025802447 0.01448695 0.0710222 0.02369692 -0.024945457 -0.064417966 0.052985564 -0.0057846676 0.0105205 -0.11084079 -0.069481015 -0.07692125 -0.07539037
could -0.07826654 0.06323607 0.029823601 -0.004846924 0.015636068 0.06470455 0.0407309 0.019886244 -0.0050004753 -0.071290806 0.069704585 0.019290987 -0.023671642 -0.0021878474 0.035991255 0.015476251
any -0.008450396 0.17471941 0.030216374 -0.04026426 0.037026387 -0.078569114 -0.029241266 -0.11557364 -0.03300957 -0.097223304 0.07541515 0.070935704 0.05895486 -0.014321722 0.0502965 0.07131628
movies -0.0987245 0.03278674 0.07735652 0.031699803 0.07589122 -0.017092519 -0.020794628 -0.021547524 0.06922693 -0.07884555 0.06895762 0.009577067 0.022253593 0.08460459 -0.015395741 0.014198125
after 0.06876762 0.013732923 0.063680045 -0.066890195 0.10955424 0.083719485 0.08718645 0.02800723 -0.0019444022 0.041456934 0.051302537 0.15982224 0.01323407 -0.010402267 -0.06980122 -0.030929824
think -0.0056598303 -0.0026956245 -0.033880908 -0.028350879 -0.016475657 -0.024153601 0.017080039 -0.044185605 -0.016511502 0.0018198637 -0.00930397 -0.0333531 0.04964669 0.049961213 0.070325516 0.08090087
characters -0.053097498 -0.05151352 -0.00966521 -0.030321583 4.8039255e-05 0.02091561 0.062108252 0.028863588 0.002781144 0.028832586 -0.05108137 -0.010392397 -0.008056095 -0.031225327 0.022596672 -0.040472224
watch 0.017627709 0.05023205 0.0517316 -0.09836103 0.0961279 0.03295025 0.016809538 -0.019132795 0.011547313 0.01641971 0.033190917 0.0924273 -0.02300745 -0.03544004 -0.04311292 -0.047977634
two -0.055372834 0.12603328 0.048738364 -0.01967062 0.0050218767 -0.0116124 0.028374065 0.038552485 0.043399554 -0.039772402 0.06644277 -0.005386819 0.06007115 -0.0039926176 0.08635288 0.055385172
films 0.016748255 0.045884006 0.022809446 -0.054419544 0.09394575 0.06153696 0.048366845 0.033429228 0.0058790687 0.0061186734 0.07702601 0.020624887 -0.021877559 -0.018765843 0.05631554 -0.017077077
character -0.05897266 0.11652678 0.06924793 0.070108354 -0.019834727 -0.09105949 -0.102190144 -0.01824908 0.0056221364 -0.06671964 -0.021136148 -0.00026008152 0.06420162 0.0033516039 0.02132143 0.042174067
seen 0.0064164237 0.092829615 0.04479407 0.013576555 0.043181553 -0.004150271 -0.030597702 -0.0068800095 -0.007836935 0.016383145 0.04876932 0.14685753 -0.01636516 0.027052209 -0.030462543 -0.04580564
many 0.047053054 0.024210587 -0.03172457 -0.025980223 0.009588392 0.024229111 0.029274676 -0.12129968 -0.054351665 0.019683892 -0.057305664 -0.0010740297 -0.05934278 -0.05515061 -0.019009069 -0.0029178376
being -0.019883681 0.13566284 0.059633926 0.07228561 0.08441828 -0.14476751 -0.022889903 -0.19002943 0.021100033 -0.120827034 0.04487771 -0.018844953 0.0918238 0.053453043 0.055096693 0.12945063
life 0.084078476 -0.053924277 0.025380896 -0.004631523 0.017774729 0.08279085 0.08321079 -0.0059763445 0.008978436 0.06370258 0.012593995 0.03458608 -0.03850515 -0.10138433 -0.021544766 -0.10262576
plot 0.020005822 0.10728605 0.12380408 -0.15514463 0.08850947 0.10481776 0.04243077 0.0955647 0.12707694 -0.13947132 0.12567131 0.14800134 0.13121559 0.045479678 0.0354916 -0.064981855
never -0.060695097 0.07317097 0.023925357 0.047612082 0.10277675 -0.09110082 -0.06149569 -0.040183067 0.07335797 -0.04687414 0.07610092 -0.023542393 0.05837679 0.09269718 0.027874585 0.05175012
acting -0.024452686 0.013977429 0.03652084 0.023399448 0.090059586 -0.011788028 0.015930973 -0.0061526736 0.07528712 -0.06710502 0.12620263 0.05717082 0.0026844125 0.044187106 0.0726994 0.023160063
little -0.0027323097 -0.021471288 -0.12643273 0.02695848 -0.0021253473 0.0104431575 0.063763686 0.06403569 -0.08156885 0.04588683 -0.10697221 -0.069288395 -0.090880394 -0.11865086 -0.05318253 0.035891064
best 0.041994184 -0.027905144 -0.05389008 0.0012340299 -0.045005906 -0.027722461 -0.00844473 -0.0691168 -0.087096974 0.039101887 -0.11287361 -0.03485638 -0.11052591 -0.09882076 -0.046978977 0.024280218
love -0.04998348 0.031782348 0.0285691 0.0696946 -0.037125558 -0.043602347 -0.03365398 -0.116028994 0.00648379 0.020691268 -0.05279673 -0.04249313 0.01807474 0.0062287613 0.080419526 0.05818809
over -0.034810778 0.07240131 0.03645133 0.035697624 0.05654301 0.022147475 -0.008742065 0.060205773 0.029226217 -0.031391434 0.042327967 0.040404517 -0.03702501 -0.04036537 0.036165945 0.04028684
where -0.033637885 0.04339826 0.06460889 0.07135091 0.010686141 -0.053305794 -0.06476796 -0.011036503 -0.0053499145 -0.046637494 0.040398292 -0.03762371 0.030415444 0.055941023 0.092767246 0.09165051
did 0.02481321 -0.032931194 -0.048953466 -0.07176751 -0.014804065 0.084235944 0.017184427 -0.016696334 -0.054419555 0.086865485 -0.041639246 0.060042262 0.0017507623 0.0030173648 -0.016410686 -2.5945956e-06
show -0.018038506 0.0051476886 0.028261086 0.03120865 -0.019461865 -0.024668142 0.059187703 -0.07067302 0.010614098 0.013180997 -3.6984216e-05 0.020541959 -0.0006087676 -0.0255879 -0.005221132 -0.026079785
know 0.0024527248 -0.04057394 0.033929855 -0.058167756 0.0549248 0.018111598 0.07796613 0.0784712 0.09764067 0.028722316 0.013791817 -0.044254627 0.0596982 0.022047212 0.058922328 0.013705908
off -0.004932413 -0.016759016 0.061520346 -0.07673168 0.07718727 0.01286158 -0.023918236 0.071584396 0.033014473 -0.03414422 0.09118295 0.037730556 0.034920562 0.028148025 0.10680948 -0.014565519
ever -0.08772712 0.06954618 0.1334218 -0.049443547 0.050858848 8.441758e-05 -0.01526932 -0.082744166 0.05651668 -0.04509245 0.109441474 0.114652544 0.09388044 0.0005979687 0.011183882 -0.013677743
does -0.052233662 -0.05720978 -0.13822305 0.15851079 -0.07031175 -0.07213923 0.0023811152 -0.15979585 -0.10216385 0.03043156 -0.116431154 -0.07172393 -0.12127306 -0.07232905 -0.026081644 0.14713177
better 0.025426872 0.044147946 0.014815347 0.011565664 0.018435027 0.044592876 -0.009865831 -0.047014385 -0.038387585 0.0019841054 -0.05632085 0.00077575503 -0.08453027 -0.11061195 -0.057552554 -0.0030566745
your -0.08522004 0.056531068 -0.024034137 -0.050051205 0.04287936 0.026321925 0.04794149 -0.077926345 -0.021569874 -0.06672736 0.019083569 0.03839237 0.033797685 -0.02464854 0.035752997 0.08717957
end 0.00191491 -0.04504375 0.010293084 -0.006763669 0.04280854 0.03430692 0.091533035 0.027340082 -0.05672067 0.050877694 -0.045654394 0.018817289 -0.04169978 -0.053965997 -0.019722503 0.02253938
still 0.00957951 0.050288506 -0.0044070454 0.045843273 -0.040338844 -0.03298294 0.023637813 -0.09128632 -0.07629549 0.049983535 -0.04996969 -0.055323504 -0.07358552 -0.10773996 -0.034470785 0.07632358
man 0.09217393 -0.068621285 -0.12319869 -0.0068120644 -0.029491633 0.025148368 0.12633076 -0.053464968 -0.07525879 0.051837802 -0.097610585 -0.018927116 -0.10243757 -0.08215436 -0.08812837 -0.0043643126
here -0.20140465 0.14327352 0.062224377 0.13367029 0.00017544358 -0.17587586 -0.09015965 -0.120154515 0.11414404 -0.11677102 0.09370293 -0.014971767 0.121418126 0.15221994 0.15586182 0.19775337
these -0.021628782 -0.0033850968 0.033681914 0.04883851 0.045403488 -0.010642314 0.006097994 -0.07135007 -0.036918033 0.0008539944 0.0124473665 0.019760462 -0.01075985 -0.02016847 0.0010157931 -0.014766211
say -0.13814135 0.12295482 0.11090721 -0.08644544 0.119685054 -0.004971403 -0.025790773 0.021086903 0.1369981 -0.10075451 0.1688722 0.019316722 0.091897026 0.1106783 0.06695104 0.014695724
scene -0.023969965 0.12667343 0.061380062 -0.006616177 0.021535764 -0.010124287 -0.030702867 -0.011016138 0.059654146 -0.04177055 0.092616975 -0.015721183 0.028182762 0.0056773373 0.10794057 0.05521567
while -0.06106399 0.02889431 -0.021353168 0.008921597 0.03435981 -0.0481516 -0.044919364 0.037201747 0.04735056 -0.009304037 0.019671824 -0.07396426 0.06392421 0.0042749806 0.07174317 0.041816894
why -0.018835364 0.024103256 0.09803993 -0.13824089 0.17517993 0.14591305 0.073681794 0.12816164 0.16325726 -0.12565789 0.1360042 0.16292821 0.07637058 0.07629658 0.087336965 -0.0839218
scenes 0.0138076395 0.03555485 0.04858156 -0.02393061 0.10166891 0.03750668 0.040109135 0.06616195 0.101506084 -0.06843146 0.024817333 0.07003259 0.09622907 0.073202714 -0.009930493 0.009561915
go -0.09108145 0.10731592 0.110747814 -0.0097713405 0.051743966 0.01901543 0.022546772 -0.07032563 0.10040387 -0.16061783 0.08220698 0.0890493 0.073624715 0.0590182 0.032426056 0.036525268
such -0.043206725 0.0019476232 0.024706172 -0.065313995 0.063991256 -0.036314778 -0.0056913286 0.12811871 0.14219749 -0.07445793 0.08778698 0.0070124012 0.094932295 0.06475016 0.1151655 0.004190732
something -0.1246259 0.13141795 0.023026988 0.11771142 0.015431244 -0.07235387 -0.0647405 -0.13897632 0.009152841 -0.10945779 0.008035276 -0.03882911 0.09484539 0.060570043 0.037135705 0.09942239
through 0.055756424 -0.04877744 -0.036962826 -0.1592983 0.07541032 0.10722056 0.13052258 0.07980823 -0.068112314 0.062448695 0.054925583 0.13885993 -0.00090082054 -0.08624693 -0.07923334 -0.11863343
should -0.09946143 0.10110953 0.08537992 -0.0020247109 0.099963434 -0.028327135 -0.071667284 0.019519549 0.12548056 -0.04972304 0.08908607 -0.096343756 0.035664774 0.040684443 0.1639047 0.119357474
back -0.03204846 0.059493124 0.013027424 0.059422698 -0.0011993565 -0.0655062 -0.05503641 -0.06215955 -0.037852686 -0.04516963 -0.0069225403 -0.070189044 -0.027069032 -0.032244455 0.067742474 0.06853823
i'm 0.051128436 0.025995545 0.07399967 -0.08721447 0.1357967 0.14340962 0.0599756 -0.01745448 0.010323407 -0.11961967 0.09097507 0.19272606 0.045797333 -0.014992863 -0.046625216 -0.08472493
real 0.05928874 0.02120557 0.0022157396 -0.055738002 0.087061584 0.10220419 0.048704904 0.029783688 0.04223861 0.051947203 0.081819326 0.12166342 -0.07121333 -0.04287138 -0.010659552 -0.060907792
those -0.0684208 0.042161193 -0.007031776 -0.0022442928 -0.07894626 -0.0145454835 -0.01020537 -0.101286575 -0.026393352 -0.03509886 0.028329534 0.022475326 0.036529846 0.018666483 0.055936914 -0.027960762
watching -0.07655249 0.051133055 -0.016012555 0.137721 -0.054828096 -0.007929791 0.015282582 -0.11499106 -0.03131161 0.045558877 -0.0050250487 -0.06499785 -0.0847953 -0.045734953 0.07679455 0.057990782
now -0.06285724 -0.019680792 -0.07432377 0.05150071 -0.11715304 -0.007586699 0.026275042 -0.03900349 -0.020083124 0.09987318 -0.11593634 0.010427319 -0.06365152 -0.047347102 0.002858397 -0.054628838
though -0.0010611062 -0.034389514 -0.015525073 0.02945978 -0.016728552 -0.079410434 -0.028603073 -0.0071559753 0.046663627 0.03210952 -0.052907 -0.030099954 0.011658232 0.017264334 -0.013108397 0.037616473
doesn't 0.016821722 0.040822897 -0.05388084 0.017371723 -0.041512027 -0.023821795 0.008542596 -0.077381484 0.0037487862 -0.042040866 0.015172409 -0.009112691 0.0021991094 -0.019582318 -0.025187472 0.046601634
years 0.07550161 -0.0833563 0.0056321668 -0.010412131 0.007854644 0.060284767 0.06906038 0.076903254 0.0035488373 0.07111384 -0.04114875 0.045439504 -0.12935789 -0.053207036 -0.078282736 -0.043015316
old 0.021218954 -0.0088665 0.04590997 -0.06718429 0.024401007 0.012579453 0.04200519 -0.08941766 0.018787941 -0.053314205 0.014605305 0.053714294 -0.018770255 0.0035850545 -0.02545052 0.014221121
thing 0.002240398 0.1082584 0.1274313 -0.025944956 0.0019382593 0.09409492 -0.016367162 -0.07045169 -0.024487006 -0.11896366 0.028533194 0.16106535 0.107840054 0.0565321 0.021317273 0.019417087
actors -0.0039703166 0.025143405 0.03724167 -0.054321654 -0.003564317 -0.034358818 0.031152641 -0.0050758147 0.061641935 0.0013444913 0.05721177 0.036011957 0.02765042 0.037189998 0.063865565 0.03142105
work -0.067121826 0.052491788 0.015550259 -0.02276421 0.057852168 0.016900899 -0.016514618 0.078820445 0.09012722 0.002551536 0.03251388 0.0098228 -0.010939173 0.07801421 0.08702425 -0.07622807
10 0.007938875 0.03023284 -0.121871 -0.14576946 0.2244251 0.19134133 0.22938636 0.03403739 0.007511328 0.086923786 0.11477582 0.29803458 -0.20014521 -0.19436707 -0.0510401 -0.12956701
before 0.053913143 -0.039063387 0.028195247 -0.035192773 0.01164896 0.07927467 0.042853933 -0.009780391 0.050680105 -0.008317567 -0.018541548 0.07535449 -0.036556423 -0.0265611 -0.06512268 -0.07262906
another 0.04717887 0.024814071 0.05382759 -0.03605305 0.081106044 0.027870547 0.020874783 0.020647582 0.036202945 -0.052982632 0.08536723 0.018306807 0.028074441 0.029414184 0.0035379415 -0.049810328
didn't -0.059424687 0.1414278 0.14320412 -0.1748848 0.1346691 0.12458391 0.03815437 0.08277776 0.163302 -0.1596378 0.21697365 0.15264064 0.11975251 0.09135028 0.044567637 -0.01286941
new -0.06864658 0.10393829 -0.028750554 0.011231913 0.013501552 -0.0500717 -0.03060262 -0.10320794 -0.08019841 -0.042255852 -0.046564244 0.022366995 0.025041627 -0.048419267 0.03592332 0.092934236
funny -0.13303253 0.03583662 0.10924988 0.025989441 0.08395103 -0.07302618 -0.01978338 0.055111576 0.03238575 -0.09138435 0.0043823617 -0.0022497266 0.10071397 0.08069205 0.066399775 0.039874498
nothing -0.05850879 0.10217928 0.10495315 0.002391757 0.039484102 0.01298036 0.032982633 -0.14553966 0.047022756 -0.12947917 0.16067305 0.15504031 0.09494577 0.0492446 -0.027975297 0.008659764
actually -0.03868645 -0.012885551 0.038039383 -0.07106255 0.04862596 0.057453465 0.06231121 0.07155319 0.0072779185 -0.043292597 0.101760365 0.03958324 0.035257433 0.052443687 0.05292024 -0.0027860731
makes 0.03396284 0.030183416 -0.0056797857 -0.018073872 -0.050732583 -0.037287463 -0.040434618 0.0047899736 0.010246184 -0.02329506 0.002612175 0.028671047 -0.005328196 0.02287548 0.005306364 0.009850897
director -0.0758705 0.06552806 0.1153549 -0.06455808 0.051768888 0.0459529 -0.03284473 0.11897097 0.120224304 -0.058995765 0.0517147 0.036054004 0.05720076 0.06682765 -0.005760133 -0.062390808
look -0.1521297 0.0458053 -0.080873586 0.17693704 -0.0772425 -0.08998151 -0.14338087 -0.10321858 0.007325324 -0.0059296237 -0.051865455 -0.08898717 0.037470818 0.0087317 0.12751615 0.14992464
find 0.020326322 0.01760532 0.11966892 -0.1509931 0.16053113 0.039705675 0.022995386 0.08487768 0.06876655 -0.0870155 0.12317848 0.09620378 0.117662266 0.007612748 0.03586284 -0.027738223
going 0.08895301 -0.003912168 0.051815033 -0.07622206 0.03640643 0.117474765 0.14240927 -0.010878933 -0.022466842 -0.020557329 0.039524812 0.08932848 -0.057861086 0.008897515 -0.059425592 -0.02393219
few 0.022806758 0.04819561 0.1155174 -0.16694498 0.10210062 0.10359955 0.11142915 0.016475696 0.059796974 -0.064425744 0.10583962 0.14590697 0.06317529 0.05505917 0.031199412 -0.0736767
same -0.005117208 0.063439585 0.022790367 -0.024443276 0.088256225 0.039318603 0.0010492918 -0.043214317 -0.044634297 -0.10636067 0.016808433 0.11301542 0.0029813908 -0.014279809 -0.03466986 0.02998268
part -0.1374161 0.14937134 0.16734943 -0.05808257 0.08398674 -0.0036080666 -0.036947925 0.14042175 0.13992506 -0.20922261 0.19685586 -0.020842781 0.14564428 0.12946743 0.12804425 0.03437484
again -0.057356946 0.05317249 0.0022346582 -0.08494703 0.111227565 0.064819425 0.095941335 0.010007153 0.024231222 -0.060950674 0.053766493 0.07836101 -0.06852368 -0.040065043 -0.0031193949 0.0028604078
every 0.06584546 -0.042840295 -0.051279604 -0.0019092965 0.02120813 0.10715112 0.06802845 -0.026883544 -0.072180465 0.053370804 -0.015888115 0.03261751 -0.06957994 0.004405761 -0.033887863 -0.08563545
lot -0.06719892 -0.007496205 -0.12175267 0.1420757 -0.049328856 -0.08754502 -0.00068716356 -0.08390642 -0.06803559 0.050894685 -0.08524752 -0.053186685 -0.031828724 0.005024593 0.06794847 0.13632682
cast 0.095154576 -0.07530146 -0.02380863 0.014233326 -0.04084843 0.0715718 0.08237369 -0.05704113 -0.05126212 -0.013362282 0.053994574 0.035267014 -0.09027976 -0.03886365 -0.097499706 -0.031971384
us -0.098333485 0.067400694 -0.046841834 0.06454961 -0.03433865 -0.040458612 -0.056197125 -0.09903024 -0.025800642 -0.02255628 0.0038432248 0.0022316363 -0.022134464 -0.017947879 0.04499672 0.029892182
quite -0.10111599 0.053879503 0.09139765 0.0047187624 0.031666357 -0.02158045 -0.052971944 -0.046951164 0.03670801 -0.049768373 0.09896945 0.012315183 0.066375144 0.05147515 0.042628407 0.029920416
down -0.03556864 -0.0130360825 0.004081739 -0.029849268 0.07776974 0.0457334 0.09697519 0.0071951845 0.021875124 -0.021290893 0.039933085 0.113240086 0.028820697 0.012163371 -0.06341142 -0.0919524
want 0.0005086729 -0.072012074 0.015979046 -0.028470747 0.085997485 -0.01843231 0.027113892 0.03330743 0.07352509 0.008075187 0.035210222 -0.03980584 -0.047518104 -0.021415897 0.02785788 0.04550573
world -0.040312916 0.07205303 0.09127429 0.04013872 0.10979336 0.0103226835 0.0012177635 -0.091571234 0.042898104 -0.09898481 0.10077118 0.17712837 0.060837626 0.025065457 -0.026932921 -0.02158008
things -0.16939385 0.09988046 0.13751498 0.031303328 0.07774737 -0.08622265 -0.04143317 0.07485007 0.13168307 -0.05147394 0.07153906 -0.07255427 0.16992554 0.10810411 0.09048717 0.052182205
pretty 0.1193613 -0.084393285 -0.0022842903 -0.08608362 0.036588762 0.11273611 0.15599218 0.09346547 -0.06384551 0.0390006 -0.015097051 0.066186674 -0.05690206 -0.09504584 -0.121549934 -0.06043859
young -0.021052828 0.045186896 -0.014733276 -0.010870507 0.03169045 -0.08303053 0.00017220338 -0.013007001 0.005511873 0.005859153 -0.01679708 -0.035479616 -0.0420367 0.011119022 0.0023305875 0.00060038926
seems -0.041954305 0.10638599 0.021073284 -0.028864844 0.036814693 -0.00989443 -0.075637765 0.076562665 0.04005957 -0.0495065 0.07227069 0.00897887 0.035389557 0.08083248 0.059738595 0.07420766
around 0.075958274 -0.07200795 -0.053322915 0.02979049 -0.029997915 0.06335548 0.077269495 -0.041838426 -0.055739086 0.1157844 -0.025995512 0.024508715 -0.12785332 -0.089852735 -0.116689935 -0.050301727
got 0.01874339 0.0122236535 -0.030689217 -0.06952426 -0.028587162 0.022267815 0.043046083 -0.06995083 -0.02937524 -0.04088466 -0.033455446 0.077199906 0.040545546 -0.043366868 -0.009688721 -0.017086595
horror -0.047938913 0.009370811 -0.110159084 0.13499771 -0.08286213 -0.06445424 0.04762075 -0.0780459 -0.05027429 0.049197115 -0.092471786 -0.069182456 -0.10224793 -0.06216816 -0.023121813 0.02553505
however -0.16365981 0.06507194 0.07811571 0.083374135 0.03318799 -0.06805425 -0.047503736 0.046332277 0.11040775 -0.11446664 -0.0004276944 -0.039378554 0.060571447 0.054995134 0.080368616 0.07672202
can't -0.06046283 0.045658223 -0.026044874 0.03330181 -0.0628277 -0.016062265 -0.04427626 -0.10620072 0.024006125 0.020541498 -0.05463926 -0.0418651 -0.0086748125 -0.003226568 0.024283372 0.011564651
fact -0.052292977 0.036170185 -0.000746943 0.08715085 -0.10759978 -0.05401066 -0.105066836 -0.058302026 -0.02445164 0.025366988 -0.09046966 -0.008908923 0.0066174986 -0.03942944 -0.0076198434 -0.009324715
take -0.048544295 0.11073543 0.061103772 -0.014607128 -0.004269702 -0.024075724 0.040500432 -0.0076822145 -0.01754773 -0.022426132 0.025255287 0.04852779 0.051292147 0.020672446 -0.024878833 -0.006570385
big -0.040397793 0.07097148 0.008700239 0.08512221 0.019903522 -0.057302535 -0.11689322 -0.13076226 -0.0412666 -0.07329526 0.002795031 -0.042196292 0.09881676 0.013694981 0.071168825 0.06862945
enough -0.03880388 0.062051587 0.061720263 -0.028775023 0.014228928 -0.052121874 -0.04960694 -0.045985617 0.02583657 -0.08059851 0.044775914 0.042586826 0.062103465 0.0028081792 0.061711848 0.03144262
long -0.05687625 0.10311563 0.03215501 0.038370438 0.016760135 -0.050311312 -0.08658185 0.091820635 0.08213539 -0.06805441 0.048343606 -0.044420876 0.07012372 0.07793309 0.06414602 0.06285613
thought -0.052803475 0.054627743 0.09621156 -0.04886174 0.051396526 0.018249666 -0.049415488 -0.0012857462 0.059665892 -0.09331381 0.111297615 -0.059702702 0.07194643 0.0930206 0.0035584713 -0.0013235514
that's 0.005078991 0.062380362 0.03881291 -0.0012429109 -0.02244077 -0.0063459203 -0.009072835 -0.108510934 -0.016176356 -0.034377113 -0.022598008 0.015703307 -0.060773812 -0.009379777 -0.0050601177 -0.019311482
both 0.018213874 -0.038920216 -0.14226677 0.07402652 -0.08435634 -0.0024928413 -0.011798451 -0.12162457 -0.09285976 0.05814375 -0.1264171 -0.04886569 -0.08532132 -0.05782966 -0.044424657 -0.03579036
between 0.008565462 -0.042243406 0.032755964 0.023873152 -0.02573495 0.037691828 0.08204461 -0.0030489932 -0.02206216 0.050504595 0.013792033 0.042228263 -0.037205 -0.0599731 -0.023314102 -0.051091105
series -0.12791651 0.09407859 0.06639338 0.038256977 0.03197706 -0.09392258 -0.10120228 0.06652023 0.09339035 -0.10385999 0.07699874 0.005585232 0.055996984 0.03522771 0.101577215 0.06080289
give 0.02056031 -0.027218327 -0.04593654 -0.0037277683 -0.04805076 -0.0044484558 0.054884825 -0.07207032 -0.068275414 0.071934745 -0.030549575 0.038958438 -0.033538043 -0.13630363 -0.0814509 -0.07265079
may -0.025499169 0.0412591 0.065965384 -0.024413096 0.0064276378 0.039126955 0.056276564 0.05561338 0.04840289 -0.060914807 0.053999398 0.06247045 0.049110018 0.016489178 0.017862674 -0.04878355
original 0.015206523 0.025708525 0.065956265 0.014007481 -0.013446268 0.02696225 0.08069991 -0.01970609 0.019597221 -0.045470163 0.014065801 0.11846733 -0.011390751 -0.033538483 -0.05082472 -0.05656407
own 0.055528536 0.051085487 0.011217416 -0.055080995 0.08046437 0.0653385 0.112829655 -0.01810248 -0.039850764 -0.015163557 0.05512258 0.057573333 -0.034679312 -0.07416179 -0.07557297 -0.023014441
action -0.057572372 -0.012013429 0.00068285473 -0.025005996 -0.005829646 0.07878717 -0.003904995 0.017134784 0.029135676 0.06759078 0.030094462 0.06922176 -0.020693287 0.0072809323 0.042718496 -0.037843473
i've -0.04941237 0.14778982 0.082107045 0.029482163 0.055117596 -0.04924487 -0.08334746 -0.039959025 0.01535782 -0.044505406 0.06427962 0.051381145 0.0021822175 0.014110146 0.07799724 0.09747654
right 0.00527757 0.08165726 -0.06330182 -0.011646726 0.021876309 0.044238288 0.009519154 0.082101785 0.0054314267 0.04912388 0.013580808 0.054605585 0.023343071 -0.046035863 -0.012307902 0.03280958
without -0.014978496 0.11733199 -0.059163664 0.07985146 0.0095521 -0.05387865 -0.025805878 -0.087039754 -0.058019657 -0.045934856 -0.06713168 -0.02536998 0.04151424 -0.021799041 0.012112533 0.12064031
always -0.025847081 0.014571831 -0.026599815 0.013915446 -0.050272595 -0.050803676 0.025872681 -0.048685502 -0.03214683 0.0580484 -0.08039881 -0.04750359 0.0126478085 -0.04590131 0.015512911 0.078081734
times -0.11998516 0.041012336 0.041909665 0.0346764 -0.06902798 -0.039888892 -0.041590374 -0.046078935 -0.03210763 -0.049583472 -0.03360722 -0.037809044 0.047555443 0.03306905 0.054393236 0.09562715
comedy -0.058521856 0.15045066 -0.018948786 0.10975929 -0.028699663 -0.010654689 -0.0648915 -0.1618629 -0.047054354 -0.11815814 -0.069043845 0.04025035 0.0091222245 0.049052216 -0.0050852704 0.16702552
point -0.0003179224 0.049499862 0.088215776 -0.121784456 0.06310436 0.07352562 0.02230468 0.14357324 0.19163232 -0.06490153 0.08486971 0.097251974 0.18310861 0.161079 0.10449653 -0.009746129
gets 0.16037138 -0.06767817 -0.0023863066 -0.086577676 0.055534158 0.07877183 0.1493656 0.00074885506 -0.048262917 -0.037425287 -0.018960364 0.04627628 -0.047078792 -0.03611186 -0.14539438 -0.113372646
must 0.10481078 -0.079753265 -0.12626874 0.036244757 -0.01957152 0.056231014 0.14479254 -0.029435739 -0.10224113 0.09945428 -0.07575612 -0.0019034784 -0.08469153 -0.093304336 -0.05794095 -0.0012574177
come -0.016571304 0.024546072 -0.058642957 0.070019975 0.03683444 -0.05084485 -0.050152082 -0.08615416 -0.017918969 0.0034545704 -0.030784795 0.0051163496 -0.030893845 -0.033267684 0.0785342 0.103154294
role -0.10616636 0.09197392 0.0680715 -0.002309833 -0.032392643 -0.0332722 -0.052756354 0.028911142 0.01140263 -0.08745982 0.056298405 -0.0557804 0.020160949 0.05693785 0.06587843 0.1060036
isn't -0.03813403 0.071708485 -0.020687973 0.0391669 -0.08540286 -0.01270872 -0.02591187 -0.08084308 -0.11723309 -0.011259999 -0.07719974 -0.016506145 -0.003419363 -0.002563864 -0.06979776 0.044697367
saw 0.16722871 -0.10957092 -0.12300834 0.013113793 -0.03687224 0.052855574 0.1484131 -0.07181394 -0.10807729 0.14988807 -0.08628892 0.0210378 -0.17232628 -0.106339596 -0.16285789 -0.09883169
almost -0.047802072 0.09321046 0.02530268 0.017497772 -0.036111187 -0.059335172 -0.07157786 0.0006278454 0.009284349 -0.02976321 -0.048701383 0.009603645 -0.026788957 0.0056915553 0.026445266 0.09454124
interesting -0.05596109 0.023095477 0.0137984995 0.0046307407 0.007277575 -0.098034404 -0.0066296477 -0.0197821 0.11690716 -0.095533974 0.07843164 -0.042331476 0.058541033 0.044116266 0.044803713 0.043796908
least -0.09678428 0.111146614 0.0376341 0.03446659 -0.0105869 -0.04456723 -0.071042165 -0.03149884 0.067467205 -0.050852336 0.011746513 -0.07719663 0.003414483 0.012515247 0.06623587 0.032426164
family -0.0300175 0.045159806 -0.01736721 0.0444935 -0.059416305 -0.04308871 -0.012466542 0.04482613 0.04444956 -0.04996384 0.021869421 -0.060213067 0.068225324 0.010870904 0.04792179 0.05178164
done -0.12520948 0.109933 0.041484118 0.11063839 0.009281289 -0.106984705 -0.056319337 -0.07151058 -0.027729582 -0.08382562 0.034954667 -0.05975759 0.03709735 0.04655555 0.071514755 0.08441293
there's -0.060310837 0.10948419 0.088786945 -0.04271922 -0.018663686 0.005413261 -0.054491326 0.032954022 0.047762156 -0.013691414 0.040316 -0.022712586 0.061732788 0.044855855 0.030456508 -0.031277657
whole -0.051292233 -0.023176726 -0.036150794 0.011758832 -0.0043953652 -0.10188658 0.035362042 -0.046899952 -0.01997692 0.0043429006 -0.0119022345 -0.044969108 -0.029897165 -0.06401352 -0.020758593 0.004211528
bit -0.11024432 0.19809122 0.058439735 0.05542916 0.017396444 -0.05604668 -0.097613715 0.068069525 0.10103043 -0.061895944 0.032914042 -0.03884804 0.12113147 0.17462288 0.1479296 0.06852439
music -0.00448795 0.03122447 -0.07708947 0.0875755 -0.019744853 -0.07645805 -0.007121699 -0.027369382 -0.0034079615 0.04566627 -0.024433387 0.0027303747 0.038097024 3.2907883e-05 0.0112451045 0.032864045
script 0.089300774 -0.07040663 -0.045890268 -0.104261145 0.08393653 0.1048658 0.11324219 0.038463496 -0.053392112 0.029550828 0.078088544 0.01725138 -0.07575132 -0.07975472 -0.09197045 -0.07404205
far -0.10256888 0.10385035 0.10031927 -0.07375069 0.13788863 0.015549261 0.011567853 0.013390553 0.048747852 -0.10079375 0.06817654 0.04906336 0.050698172 0.07705149 0.13103567 -0.034880627
making -0.038959637 0.04937462 0.06733203 -0.041578345 0.044439558 0.11816672 0.07604172 0.021664008 0.03668603 -0.0031588636 0.07141979 0.03722709 0.04765767 -0.008472801 -0.04645757 -0.02294006
guy 0.040995933 -0.08061761 0.019879209 -0.12284672 0.073948026 0.081043296 0.12709387 0.07895938 0.025186999 -0.008053425 0.025752954 0.08999716 -0.053995915 -0.1082896 -0.08431003 -0.14558205
anything -0.09672279 0.12065346 0.07069271 -0.04845284 -0.0068389387 -0.0037142655 -0.08563134 -0.04909154 0.028038211 -0.13268381 0.06543767 0.004190496 0.04862272 0.04420574 -0.011990609 0.060582224
minutes -0.11233482 0.15957512 0.115180984 0.06153864 0.033771295 -0.12111017 -0.13560858 -0.04127258 0.07071779 -0.13098097 0.15979496 0.019385595 0.15166405 0.13732114 0.09988964 0.11358955
feel -0.031379804 0.029698718 0.074933425 0.0314982 0.016677013 -0.021264521 -0.058214918 -0.004871477 0.0802143 -0.022561962 0.029234827 -0.024858106 0.026718931 0.055692963 0.071871184 0.047291137
last 0.027655672 0.051748574 0.09533524 -0.10957454 0.1851047 0.08779034 0.036672946 -0.0013478075 0.05570903 -0.08070094 0.12532027 0.06740217 0.09305179 0.084945895 0.06995344 -0.02706601
since 0.1253767 -0.0645454 0.0059596584 -0.1027246 -0.009507641 0.05125598 0.1202538 0.03294341 -0.010436753 0.08745677 0.0348991 0.024823017 -0.09729117 -0.056074478 -0.08103144 -0.07462357
might -0.026585106 0.022327984 -0.023154331 0.06679081 -0.016560793 -0.012595032 0.02815249 -0.074923694 -0.026119655 -0.024144508 0.0038381815 0.0041430932 -0.035698254 -0.03470329 -0.012529466 0.023244988
performance -0.017665977 0.021436742 -0.010847983 -0.031130701 -0.0022024203 -0.03628846 0.018681895 0.025425754 0.042092133 0.010328068 0.0009888232 0.07276837 0.035392363 0.010996548 -0.032302123 0.021032574
he's 0.08104478 -0.046196107 0.0014282041 0.023075238 0.022610243 0.017719425 0.021184972 0.01514633 0.010220218 -0.06471023 0.069437526 -0.008629966 -0.02220028 -0.07347343 -0.048353646 -0.07125044
2 -0.081407666 0.06752401 0.040252555 -0.023240201 0.020980747 0.01564053 -0.03766221 -0.08257407 0.030240882 -0.08343822 0.031980038 0.064509585 0.024170825 0.06356548 0.018702786 -0.0058516394
probably -0.10572698 0.09632981 0.08544709 0.06030545 0.019315997 -0.060006782 -0.053968932 -0.028028246 0.09964775 -0.024581192 0.031296447 -0.05611716 0.052042134 0.03578102 0.13875239 0.09226396
kind 0.05961892 0.11134321 0.15723751 -0.19483761 0.12901203 0.124726765 0.1269585 0.14073819 0.13541247 -0.104534216 0.16051356 0.20591912 0.0996937 0.049584523 -0.109989695 -0.07165412
am -0.0018148527 0.0057879803 -0.036005724 0.04878409 5.317507e-05 0.017198423 0.026353694 -0.03526231 -0.05753897 -0.0047344943 0.0017652402 0.042430453 -0.048669655 -0.07981418 -0.06721526 -0.0033164697
away 0.0019167676 0.06398837 0.062957264 -0.0025139675 0.04706788 0.05238717 -0.015324278 -0.042268366 0.024323743 -0.041502934 0.03451549 0.15339302 0.021024857 0.016132005 0.026773022 0.0053904317
yet -0.11619303 -0.0020511905 -0.16688503 0.15964162 -0.09554489 -0.14271185 -0.0142459525 -0.11377793 -0.16042483 0.054707926 -0.11501791 -0.15103312 -0.10423978 -0.110380165 0.066504195 0.09975468
rather 0.030398468 -0.08995761 -0.064286426 0.07474224 -0.04148831 0.0354192 0.10036437 -0.121886194 -0.1524318 0.07221558 -0.12511516 0.029725168 -0.08941505 -0.09508164 -0.06398476 -0.009402658
tv 0.00048732298 0.07346395 0.04471611 -0.07101021 0.07224729 -0.006602175 0.036299847 -0.016403647 0.038276058 -0.015182168 0.0815803 0.036868054 0.03721835 -0.02085893 -0.039225113 -0.021086328
worst -0.17815848 0.1863667 0.26451072 -0.0761458 0.1636317 -0.04652578 -0.10431805 0.03085154 0.2324992 -0.19133173 0.24136077 0.042739447 0.17207465 0.19811925 0.20667185 0.09279178
girl -0.13189688 0.103782155 0.047934495 -0.021996671 -0.049476363 -0.08379993 -0.09398237 0.0056967307 0.05592598 -0.027041111 -0.010476324 0.022460891 0.041260526 0.047727752 0.10255655 0.029406564
day 0.08486552 0.0071590785 0.008407726 -0.051088534 0.043804135 0.043882072 0.12383602 -0.0021668698 -0.031162355 0.020762522 -0.0056167296 0.076534465 -0.046585202 -0.07576651 -0.022491721 -0.05243825
sure -0.0370404 -0.023663297 -0.05877709 0.0661614 0.039727822 -0.051619746 -0.015450397 -0.05202955 -0.05184975 0.05260095 -0.047737464 -0.057691637 -0.032977216 -0.03479475 -0.060123246 -0.0060098222
fun -0.12245475 0.062939405 0.09818147 0.07257962 0.070009194 -0.08780377 -0.06564156 -0.042222477 0.099135384 -0.062891774 0.05420121 -0.064616956 0.017666671 -0.0034358944 0.07896986 0.09253312
hard -0.10812809 0.13675246 0.07736311 -0.02867108 0.044879504 -0.070151284 -0.11057067 0.034633275 0.121145636 -0.06274483 0.046755787 -0.009908211 0.13017349 0.13681458 0.09171746 0.1114557
woman -0.1395573 0.04905435 -0.008352326 0.04600536 -0.021814197 -0.073676884 -0.09764227 -0.050513454 0.005112792 -0.03560209 -0.02120344 -0.03581011 -0.027366178 -0.020684252 0.06846827 0.062262796
played -0.06389834 0.021938197 -0.0042883507 0.017077388 -0.04545891 -0.07775209 -0.032251514 -0.0725074 0.057864856 -0.08874818 0.03330825 0.046709325 0.028713997 0.06140806 0.03312156 0.019203464
each 0.01273798 -0.024956632 0.05098095 -0.016011408 -0.011341784 -0.032144573 -0.038943216 -0.0135526685 -0.0011835605 0.035496023 0.024153082 -0.011297682 -0.014984669 0.015136412 0.025400246 0.016236288
found -0.105618395 0.058082875 0.034647133 0.0065084225 -0.03160597 -0.112169564 -0.1123017 0.049182888 0.04939507 -0.044300973 -0.024809998 -0.046551682 0.07280357 0.12187832 0.10160622 0.15737239
anyone -0.030785294 0.032107793 -0.0037788167 -0.035264414 0.0073595964 0.052094795 0.040073782 0.017780703 -0.009263037 0.011416934 0.0520444 0.035562545 -0.061693203 -0.06609476 0.009200744 0.0518081
having -0.05402283 -0.007901897 -0.015559039 -0.00039354057 -0.02340789 -0.013547652 0.0054364507 -0.007768725 0.044086814 -0.094555885 0.023688922 -0.05218293 0.014110391 0.0023274776 0.08210822 0.062405325
although 0.11916054 -0.016607746 0.053363513 -0.14243455 0.06554941 0.087886035 0.13702281 0.044444896 0.006286184 -0.010702853 0.11134084 0.08689701 0.05654689 0.02203084 -0.052770186 -0.060653955
especially -0.09295201 0.05087795 -0.017599763 0.033367027 -0.073112756 -0.08044605 -0.05026607 -0.008365043 -0.0049635665 -0.012312822 -0.042953994 -0.040375713 0.0025762164 -0.005259148 0.07523969 0.060821164
our 0.04989158 -0.02503895 -0.110233776 -0.00495157 -0.0012181196 0.046379283 0.016818054 0.037216228 -0.0049626688 0.05789745 -0.12125617 -0.044429753 -0.07633279 -0.04036227 -0.047036804 0.025888253
believe 0.052148014 0.08609763 0.058470048 -0.033977192 0.044781607 0.0069081774 -0.00086825533 0.031401563 0.070826046 -0.063274585 0.043525346 0.03772358 0.005953817 -0.011516509 -0.046481192 0.004992632
course -0.06295387 -0.021938745 0.078824386 -0.0054044225 0.03290913 -0.049955387 -0.036123235 0.08582211 0.0392813 -0.067544326 0.07300324 -0.041561577 0.025220782 0.05940755 -0.0015990481 -0.019502023
comes -0.048437342 0.06716547 -0.0012950465 0.03268946 -0.031136222 -0.051639173 -0.05411942 -0.043535147 -0.008656422 0.00092522113 -0.016233284 0.0054188618 0.014571438 -0.070386864 -0.00909954 0.045572277
looking 0.014200741 0.031211944 0.013675989 0.05659857 0.0014138445 -0.05766885 -0.031300664 -0.043291114 0.0103048235 -0.026982808 0.007976221 -0.04455413 0.009416135 -0.0074703344 0.044061597 0.1218111
screen 0.065577075 0.008369263 0.023285644 0.01590573 0.032105733 0.078292556 0.08774233 0.046392012 0.004597414 0.008301095 -0.023547009 0.008046934 -0.042322725 -0.02475368 -0.042119693 0.012566142
trying 0.08830466 -0.11724374 -0.044833157 0.07751699 -0.07600421 0.018915955 0.014961879 -0.046436656 -0.10682828 0.104491994 -0.11830338 0.0056628087 -0.13952161 -0.053223595 -0.10656448 -0.060679108
set 0.100060366 -0.06757434 -0.0006425807 -0.036207065 0.020747839 0.100591816 0.12555923 0.051384304 -0.045355655 0.086743765 0.03902176 0.05653298 -0.04411225 -0.048167933 -0.084531404 -0.06131277
goes -0.010044591 0.008098355 -0.09085001 0.055631917 -0.059475224 -0.04449073 -0.06994436 -0.025192263 0.023886388 0.021106662 -0.020539267 -0.05248103 -0.03597134 0.03435953 0.004011965 0.09922551
looks 0.07647308 -0.036019024 -0.124065146 -0.03746528 -0.028415835 0.050003227 0.033650868 -0.06507362 -0.053728588 0.105006546 -0.07186167 0.029658556 -0.041973505 -0.088993914 -0.104788505 0.000941865
place 0.2187091 -0.11627308 -0.1605048 0.013864447 -0.11302442 0.10254101 0.10330081 -0.15222877 -0.23033406 0.14657795 -0.08770197 0.05042284 -0.1408885 -0.21968415 -0.15160549 -0.10858416
book -0.0009329066 0.10102147 0.06663535 -0.022237072 0.0071704327 -0.031711917 0.0044245403 -0.10010659 0.028970955 -0.04733355 0.047062866 0.082937546 0.05717024 -0.018389365 -0.046903536 0.0027207823
different 0.05261545 0.05370108 0.0026720588 -0.10558845 0.08529017 0.028582511 0.09344043 -0.06331445 -0.040755197 -0.06582175 0.030873511 0.10584721 -0.070024826 -0.056774955 -0.086536154 -0.072852515
put 0.07446127 -0.13444819 -0.06906835 0.008462407 0.044258125 0.024933998 0.1076777 -0.020985542 -0.023655642 0.07941661 0.023201479 0.042209152 -0.099300206 -0.09928948 -0.12335532 -0.05846806
ending 0.004055078 0.021754468 0.044963866 -0.038106523 0.06017205 0.006671389 0.056099314 0.058752295 0.06827434 0.0049459245 0.08737713 0.0026168572 -0.045224186 0.009187328 0.06688887 -0.027922148
money -0.13235915 0.08509037 0.13894264 0.023367576 0.1445635 -0.07995813 -0.120865256 -0.03356824 0.10271013 -0.15947334 0.14449945 -0.00071029464 0.15126848 0.18201336 0.094272174 0.1405946
maybe 0.061213955 0.06465966 0.029448215 -0.028043026 0.023108408 0.02685518 0.074156374 -0.04025584 -0.03837093 -0.07183671 -0.019409496 0.032594632 0.049361788 -0.016497226 -0.040775727 -0.032315034
once 0.09241554 -0.13905768 -0.0933015 0.04226221 -0.030038523 -0.0154749295 0.04450469 -0.023119818 -0.0777074 0.08015636 -0.08881742 -0.056374524 -0.16997413 -0.14619483 -0.120506406 -0.035485532
sense 0.044434 0.02701315 -0.041164104 0.0108360825 -0.01938806 0.0749681 0.0022810504 -0.023068177 -0.07788296 0.004973177 0.012195568 0.08155418 -0.06626005 -0.009776734 -0.06775959 0.061619706
reason -0.039019134 0.105009116 0.19375814 -0.07037936 0.07027332 0.00025444519 -0.06634455 -0.04514069 0.076542474 -0.15154026 0.15601376 0.1465756 0.17133968 0.17693898 0.006156019 0.06764204
true -0.0032011014 0.030453645 0.024955599 0.029796746 0.029863046 0.021849869 0.09745569 -0.028377136 0.03606342 -0.0055071833 -0.0113863805 0.07075528 0.00029144503 -0.053564876 0.03388162 -0.0044692676
actor -0.019884488 0.008639587 -0.027136277 0.02181548 0.020452924 -0.04303096 0.043829203 -0.028365681 -0.04722215 0.04991876 -0.06338023 -0.04641561 -0.012527361 -0.036820754 -0.013155711 0.0036746853
everything -0.009991235 0.005673364 -0.042651653 -0.0067705917 -0.0022035954 0.043889087 0.03791426 -0.10852637 -0.010892285 0.012714498 -0.0219896 0.019042686 -0.100021616 -0.024502661 -0.0070213326 0.039049227
wasn't -0.114343226 0.16565809 0.11168942 -0.017377002 0.09805636 -0.1499163 -0.08742574 0.06220571 0.16945288 -0.084596545 0.17366588 -0.037000403 0.14482059 0.10453053 0.15537901 0.094706066
shows 0.010703056 0.00062430603 -0.007967814 -0.053724226 -0.006254478 0.04683942 0.036875024 -0.046446078 0.004070879 0.060989473 -0.005184695 0.037516918 -0.066265896 -0.030495947 -0.023567248 -0.028890844
dvd -0.016550688 -0.04223185 0.067297705 -0.005686884 0.0037421542 0.005215733 0.011308435 0.085730255 0.050507747 0.0074545834 0.07025069 0.10080321 -0.034974787 -0.0056938054 0.019847801 -0.04006086
three -0.05777151 0.015259285 0.046462547 -0.053409703 0.010823659 0.040821422 -0.030204238 0.14195879 0.009951506 -0.06756375 0.04836558 0.004052315 0.0074952915 0.039366 -0.016060153 -0.020358685
worth 0.07055479 -0.029207442 -0.031463724 -0.08261703 -0.023687225 0.07907272 0.14881903 -0.046766397 -0.07281173 0.022813613 -0.02162476 0.053977046 -0.13492008 -0.09222354 -0.0902192 -0.05435228
year 0.040814817 -0.04133414 0.014861482 -0.055435136 0.08742916 0.07629342 0.08370593 0.093350306 0.019502765 0.049983844 0.024556205 -0.022653544 -0.084680066 -0.07632914 -0.0035454272 -0.07075383
job -0.019432167 0.046385717 0.0029732012 -0.015228008 0.0020959328 0.012502982 0.036084365 0.016414184 0.011577664 -0.052295353 0.11531631 0.08418538 0.009229529 0.027460704 0.026533727 -0.010666771
main 0.055323876 -0.029435404 0.085627094 -0.1259835 0.10904887 0.11040993 0.060055073 0.103101924 0.045323294 -0.059237048 0.05652818 0.06832695 -0.04705751 -0.047733434 -0.024657896 -0.06826571
someone -0.07075885 0.07613939 0.14800476 0.028526116 0.101241924 -0.005066061 -0.012630792 0.056528922 0.047576748 -0.09264789 0.051586147 0.013931314 0.0723608 0.11018885 0.10863727 0.0023358765
together 0.0019637956 0.067653865 -0.038128458 0.034210388 0.033721033 -0.022964489 0.018793534 -0.026317509 -0.019345509 -0.052312873 -0.045886982 -0.031626023 0.06505641 0.04807237 0.020985687 0.005541114
watched -0.115965635 0.08046544 0.01697684 0.099859856 -0.025976444 -0.050882995 -0.073032685 -0.1788212 -0.043747317 0.0025404936 -0.006590353 -0.085462175 -0.022902172 0.036232725 0.058703072 0.13747548
play 0.019676235 -0.05676556 -0.017918944 -0.030204173 -0.038592096 0.016705275 -0.005313527 -0.008159622 0.005472048 0.03445172 -0.0011827704 0.06309977 -0.0016280066 -0.032076634 -0.03711145 -0.0027918022
american 0.10752782 -0.028680742 -0.1500877 -0.02958643 -0.006329402 -0.011800145 0.055480607 -0.061157394 -0.11392137 0.032932203 -0.06193107 -0.03413444 -0.11229039 -0.102304906 -0.12188218 -0.0035199833
plays -0.06365933 0.07179319 0.094015226 -0.045310676 0.06296987 -0.008419111 -0.05178353 -0.014367587 0.11776934 -0.09822959 0.07717197 -0.025720917 0.062207107 0.109857604 0.056485448 0.025709376
1 -0.0714649 0.06305404 0.015374132 -0.06133684 0.095957726 0.0047644046 -0.008422702 -0.08993111 -0.022792075 -0.0072650206 0.111263946 0.07378092 -0.0018398872 0.027674964 -0.033357892 0.017652635
said -0.00067732163 -0.022897752 -0.041427452 0.0048863697 -0.02337731 0.02229601 -0.041443 0.0032332605 0.028199583 -0.007815518 -0.060367987 -0.03088869 -0.025706757 0.047028843 -0.05432798 -0.048894484
effects -0.05513258 0.10459824 0.06405429 0.047034174 -0.013572312 -0.082736276 -0.059680548 0.06785533 0.06942635 -0.11663455 0.0716118 -0.06111662 0.12960358 0.14381887 0.14485037 0.09152149
later -0.026959665 0.03292155 0.0058917706 0.112908594 -0.055022802 -0.074511826 -0.059447523 -0.07198511 -0.020803401 -0.0718373 0.0471279 0.050276257 0.008020276 -0.030223284 -0.017807137 0.109725155
takes 0.0040181424 0.039805938 0.037992172 0.03785689 0.018745687 0.052389994 -0.025084777 -0.029326562 -0.03521503 -0.026006695 0.053373232 -0.023447258 -0.012823811 -0.06096484 -0.06394654 0.028385991
instead -0.16464856 0.19652614 0.17012326 -0.017776573 0.04941787 -0.13793996 -0.14807197 -0.05780492 0.146127 -0.111895725 0.12472822 0.005253903 0.1981933 0.14572044 0.19775069 0.16318981
seem -0.06000543 0.037675172 0.045486975 0.0077926265 0.007918433 0.033236817 -0.023425043 -0.014695476 0.008319962 0.0118429335 0.005259264 0.05239846 0.068634145 0.041011803 0.011660122 -0.02505295
beautiful -0.1065338 -0.026611648 -0.15825796 0.115145005 -0.092489295 -0.10166029 -0.065885305 -0.105734885 -0.041988835 0.10658183 -0.08582937 -0.12799971 -0.03935611 -0.12070675 0.016324963 0.073578656
john -0.0008152025 0.026113892 -0.010488145 0.025219372 0.034309104 -0.039113853 -0.055097487 0.039009757 0.025235508 0.05389926 -0.012368994 0.019570347 -0.055059638 -0.034118965 -0.021850677 0.013847767
himself 0.043080796 -0.06152553 -0.045478564 -0.009955694 0.104522504 0.031499095 0.1195337 0.043168563 -0.05723064 0.10321835 -0.018728942 0.02026971 -0.042357787 -0.037492 -0.06051348 -0.022463098
version -0.008387758 -0.06487277 -0.051751163 -0.0038812489 0.04266845 0.031515837 0.04055966 -0.011714951 -0.08454506 0.025827488 -0.05610087 0.0067211855 -0.09969301 -0.06827541 -0.05398403 -0.05370166
audience 0.055197172 0.032553993 0.038640805 -0.09429158 0.037857704 0.100013636 0.07915337 -0.010707582 -0.038778447 -0.014941585 0.06349352 0.11626522 -0.020625874 -0.019892093 -0.030436683 -0.04382234
high -0.087541685 0.08612009 0.07273183 -0.0387701 0.026664887 -0.059287902 -0.056954112 -0.048190758 0.08235301 -0.078336515 0.06459678 -0.036039203 0.027036758 0.10256143 0.11060121 0.05455717
house 0.09787234 -0.02162092 -0.01642012 -0.047405325 -0.039296586 0.014633313 0.10147579 0.007971576 -0.056121904 0.066909745 -0.019640865 0.059152253 -0.12529807 -0.06232873 -0.08082506 -0.022749146
night 0.054412097 0.023139182 0.055896923 -0.09660368 0.029665938 0.060549248 0.07781606 0.024445763 0.050694052 -0.008932999 0.08280906 0.050827704 0.031007662 -0.011336982 0.013163314 -0.08530591
during -0.12851171 0.14199458 0.03481406 -0.0017001535 0.017831367 -0.017059729 -0.047779817 0.03306302 0.023909388 -0.009983543 0.03303748 0.02957306 0.059193004 0.03573436 0.054769944 0.03404122
everyone -0.0060106334 0.025426794 -0.03175858 0.04504643 0.044484507 -0.08649731 -0.015875734 -0.03850159 0.014145634 -0.05695309 0.03843547 -0.0004517428 0.05412919 -0.023191528 0.05523824 0.027732883
left -0.041742373 0.09480625 0.16361307 -0.09608113 0.07518225 0.01772022 -0.036141906 0.024212116 0.08182737 -0.082836375 0.0860686 0.03435948 0.10297397 0.13308449 0.08374102 0.028227467
special -0.02695508 -0.060574487 -0.04921154 0.08615654 -0.11641834 -0.11953214 -0.08870127 -0.11124376 -0.07012452 0.059016474 -0.10367697 -0.07996189 -0.04178003 -0.06965985 0.06352568 0.06289663
seeing -0.048194274 0.0691852 0.08288657 -0.001262942 0.07867727 -0.02037673 -0.054471318 0.017817926 0.09322642 -0.118075795 0.04953293 0.01763269 0.09014769 0.055865455 0.114600286 0.06732984
half 0.005639748 0.08811837 0.008458866 -0.06363719 0.05678971 0.038186222 0.08260513 0.00081574306 -0.026925353 -0.041017324 -0.0005101511 0.04916258 -0.05356654 -0.056876093 -0.0023059852 0.05071054
excellent 0.13003492 -0.11873978 -0.13093525 0.0010015497 -0.033285145 0.10246412 0.15206075 -0.10342078 -0.080467656 0.1331148 -0.03357724 0.074416794 -0.15269688 -0.127692 -0.14043647 -0.08052622
wife 0.07868613 -0.06675079 -0.03818031 -0.053193092 -0.008553571 0.046158783 0.017185707 0.036566004 -0.01445489 0.018155463 -0.032842696 0.0974674 -0.05579371 -0.06847625 -0.10967358 -0.03373126
star 0.037838653 -0.026914395 0.06562196 -0.0657183 0.07933502 0.10273077 0.119878225 -0.011339513 0.06381456 -0.015132954 0.08107621 0.10245662 -0.012103154 -0.106778994 -0.009513782 -0.09936734
shot -0.00810699 0.025045888 -0.005450378 -0.047841754 0.048387468 0.043163437 -0.02598661 0.117634505 0.09184006 0.025270551 0.07608926 0.023044478 0.031121396 0.081308894 0.0049289158 0.009610734
war -0.026269969 0.03748005 -0.0046888925 -0.019024579 0.063177735 0.011266543 -0.0015319894 0.007490218 0.058364894 0.003114553 0.032924682 -0.0033276847 -0.020301513 -0.04960836 0.066793494 0.032290064
idea 0.07691622 -0.046032954 -0.06680323 0.03796371 0.019442467 0.012949211 0.037626397 -0.07928158 -0.0551244 0.08145502 -0.033432677 0.02924031 -0.049956262 -0.1076495 -0.03736466 0.038651306
nice 0.12057475 -0.09467225 -0.10434722 -0.023984902 -0.05812843 0.035516564 0.087473094 -0.01501737 -0.13770561 0.094124675 -0.097575456 0.07798042 -0.17057447 -0.09319878 -0.13506643 -0.05723948
black 0.13810149 -0.081865534 -0.013233906 -0.05160352 0.009893378 0.13056192 0.10514846 -0.04627915 -0.021058463 -0.0011131668 0.002489945 0.03104603 -0.039818313 -0.021148762 -0.106689245 -0.09189129
less -0.0053770626 0.054016598 -0.055627126 -0.067885354 -0.025096616 -0.025730059 0.079682104 -0.015673762 0.029452119 -0.008553164 -0.015577788 0.02201655 -0.070041165 -0.08328626 -0.02631129 0.028533535
mind 0.06214354 -0.09510396 -0.13794787 0.020167934 -0.11137718 0.035983395 0.06022282 -0.08096249 -0.0885474 0.10190091 -0.08526187 -0.11443016 -0.14552133 -0.08321144 -0.092851885 0.005003309
simply -0.016455757 0.019243086 -0.021728596 0.010320634 -0.035114463 -0.07640293 0.016572056 -0.11541897 -0.033638533 -0.00065975386 -0.07625842 -0.05317395 -0.017929012 -0.034823317 0.025322309 0.041945133
read 0.01871575 0.04605317 0.022660423 -0.0034862265 0.025440661 0.033115976 0.037716188 -0.04793052 -0.061874866 -0.011401664 -0.040576443 0.103458025 -0.056956384 -0.0901319 0.018842682 -0.001068653
second 0.013289012 -0.03890203 -0.01918824 0.0435143 -0.010558675 0.020601878 -0.014240468 0.057832863 -0.032365263 0.059465203 -0.014656083 0.017770335 0.0031136493 -0.04815951 0.032624863 -0.009828027
else -0.02978815 0.024073357 0.04685056 -0.11796304 0.06396618 0.10351917 0.002538924 -0.08372431 0.06996585 -0.07799669 0.111758344 0.15160403 0.030268312 0.047310874 -0.024779331 -0.058851212
you're -0.053327367 0.039334837 0.012729886 -0.024357343 0.033667855 0.052066952 -0.020452686 0.04738757 0.016919142 -0.019040918 -0.001702864 0.001541595 0.065739945 -0.022131227 0.03967277 -0.049235824
father -0.037499707 -0.010215303 -0.073371895 0.11686818 -0.065415874 -0.070831224 -0.059507836 -0.0047070025 -0.028351966 0.069717556 -0.029357472 -0.07485221 -0.016096577 -0.020587252 0.0082449615 0.02314743
fan 0.048196387 -0.02394971 -0.062244784 -0.024611963 0.017849447 0.038262997 0.1426403 0.04913339 -0.062697664 0.07166272 -0.069834344 0.024530292 -0.08935053 -0.08485014 -0.08009431 -0.02600281
poor -0.0037261366 0.023045598 -0.059065703 -0.025837371 -0.02210519 0.015914444 0.0027117075 0.0028832548 -0.014714903 -0.040620323 -0.019019488 0.04700304 -0.03996766 -0.030586634 0.012793086 -0.015119114
help 0.04474538 0.06857226 0.027516725 -0.13701656 0.076056525 0.057816174 0.029851627 0.037199635 0.052912492 0.04345873 0.09302168 0.071477056 0.021040345 -0.056917563 -0.06342093 -0.055993587
completely 0.016732428 0.058173656 0.07489571 -0.110717006 0.09508345 0.05854053 0.063589245 0.00034722715 0.04833461 -0.09489462 0.10997672 0.03090008 0.09284194 -0.0045474176 -0.05908854 -0.036060575
death 0.005078982 0.016972333 0.0372543 -0.01015787 0.04599741 -0.011644954 0.112482354 0.027163303 0.026229892 -0.08455502 0.05738315 0.038358856 0.01531646 0.05555602 -0.0025267787 -0.006435494
3 -0.11009874 0.18273023 0.17406704 0.08579982 0.090722196 -0.05383587 -0.14604366 -0.122749664 0.14433978 -0.22650273 0.15774304 0.019225929 0.17061101 0.12080197 0.146503 0.13133521
used -0.05349435 0.07885932 0.07483621 -0.044654343 0.11889802 0.017933741 -0.013300959 0.09608304 0.11843062 -0.109193996 0.06611658 0.009305294 0.04687512 0.073814146 0.054687094 -0.00049236225
home 0.06888982 -0.0051158112 -0.05118871 -0.021953262 0.023478165 0.032871414 0.108087435 0.06820284 -0.043299824 0.07812008 -0.0029694885 0.06320404 -0.15786238 -0.13464475 -0.009005413 -0.021974778
either -0.030530743 0.04030258 0.13330014 -0.029475164 0.1040317 0.09887878 0.045398362 0.03875275 0.10754265 -0.06457474 0.059054926 0.07541425 0.08072169 0.07995297 -0.007423547 -0.08106274
short 0.05899898 -0.1077362 -0.057265762 0.043779895 0.043111093 0.0084277205 0.036381356 0.013491722 -0.06891493 0.05551777 -0.014978787 0.012277941 -0.0518772 -0.08755584 -0.026272887 0.0092383055
line -0.028574029 0.0961961 0.023070104 0.050809525 0.0010481832 -0.07472022 0.0032578618 -0.047018997 0.06385132 -0.067373715 0.05850709 -0.03476511 0.077758014 0.04967888 0.044495717 0.047293507
given 0.011330058 -0.026925186 -0.08079435 0.11199549 -0.06430089 -0.101783544 0.023483343 -0.041194167 -0.027110554 0.020960165 -0.05786291 -0.06648162 -0.05883842 -0.06439004 -0.021299887 0.046242792
men -0.07209316 0.05634159 0.040706918 0.040824547 0.039277688 -0.008474125 -0.046484336 -0.022891987 -0.015787808 -0.055757787 -0.0028157157 -0.048171625 0.0816955 0.066009164 0.04086793 0.012449318
top 0.039155327 -0.037572615 -0.123381525 0.07436765 -0.04011514 -0.027269492 0.025089156 -0.046987146 -0.091964126 0.026112111 -0.10644976 -0.013062147 -0.07654217 -0.090479024 -0.060356326 0.05755578
dead -0.06540457 0.06803344 0.0419197 0.0353083 0.05720021 -0.042889196 -0.06626611 -0.07761134 0.09024832 -0.034009308 0.07104536 0.026261935 0.09050435 0.059013143 -0.0016773287 0.014696873
budget 0.012009234 0.02431707 0.085472636 -0.07113002 0.118499294 0.14968951 0.0531157 0.015440636 0.06121863 -0.10690002 0.16965127 0.095279254 0.1173997 0.031534128 -0.011726392 -0.12984748
try 0.06265483 -0.08182646 -0.002035602 0.05638968 -0.020607224 0.0069023343 0.044888917 -0.07742402 -0.035500772 0.07669074 0.0031137383 -0.045414798 -0.037809987 -0.09023797 -0.04070834 0.0033995737
performances -0.0037793622 0.09017123 0.014424027 0.034201343 0.021744452 -0.078694075 0.008709827 0.025730822 0.032515783 -0.071170434 -0.041302517 -0.05698294 0.011184642 0.0019985645 0.06611081 0.01659802
wrong -0.09570087 0.0015765823 0.0006167914 0.031539794 -0.05792038 -0.06779524 -0.09653286 -0.0564493 -0.043380316 -0.07484209 -0.04483583 -0.045433737 0.07675141 0.036662325 0.069439426 0.04421176
classic 0.0914742 -0.06243174 -0.056479245 -0.020534879 0.033564012 0.046851475 0.14666316 0.1123223 -0.052077506 0.051440835 0.022169039 0.0032133325 -0.13802265 -0.11321955 -0.026884094 -0.10112009
boring 0.010912286 0.016424865 0.116011694 -0.044861138 0.082707405 0.08560045 0.078839734 0.015534793 0.022347074 -0.12639809 0.12295287 0.16261536 0.038527112 -0.0017739844 -0.069287166 -0.108757906
enjoy -0.027547473 0.07851641 -0.015532085 0.027113805 -0.03432874 -0.006758828 0.047750425 0.006433225 0.012676334 0.010149703 -0.0007545939 0.10329146 -0.010893541 0.021298086 -0.025808549 0.016226673
need 0.025737705 0.074582696 0.13280244 -0.13411465 0.08538077 0.060831513 0.02289828 0.032770213 0.11740327 -0.11781691 0.080994554 0.11982268 0.08097256 0.07343599 0.046804644 -0.083764695
rest -0.03037202 -0.043645233 0.011949725 -0.025721528 -0.016207904 -0.04575449 -0.042913973 -0.057471883 -0.07197435 0.042524025 0.0046028364 0.05253757 -0.008450617 0.02167414 -0.027178932 -0.00018117367
use 0.0027288317 -0.05184967 -0.0028345762 -0.031223712 -0.023105145 0.020071803 0.04350844 0.008681209 -0.03168706 0.066534616 -0.019929545 -0.0041243657 -0.010718439 -0.051043227 -0.0071426984 0.023107419
kids 0.10810641 0.0131465 0.033463992 -0.06649733 0.088780895 0.061649445 0.043535918 0.032469623 -0.0023515283 0.032293525 0.005642896 0.04852166 0.015208153 0.00930134 -0.047268208 -0.091617696
hollywood -0.037014917 0.04712603 0.0979477 -0.079288 0.10050471 0.049228225 -0.0011211908 -0.0074232845 0.010002063 -0.035249922 0.058907557 0.034349468 0.029042995 0.00487366 0.034369055 -0.058412157
low 0.1686521 -0.087957956 -0.06613546 -0.11188025 0.027184827 0.19990516 0.14383693 0.014977757 -0.08712201 0.0725868 0.05684854 0.17469476 -0.08955655 -0.09191619 -0.10916579 -0.18662658
production -0.023609236 0.04127392 0.0042213877 0.00066286355 0.024863321 0.0025103032 0.061778035 0.019422924 0.05280243 0.022077683 0.011446146 0.042649165 -0.007859518 0.014920122 -0.039640047 -0.02974709
until 0.10775304 -0.090448976 -0.062381115 -0.13487399 0.015943566 0.07912257 0.17301802 0.02872532 -0.055171534 0.039936487 -0.011902993 0.11981349 -0.104730316 -0.10407668 -0.041421466 -0.15351832
along -0.104819424 0.009350774 -0.08343002 0.10496228 -0.09962405 -0.062180977 -0.011082295 -0.08317728 -0.024827333 0.02168434 -0.08703283 -0.057084985 -0.07955305 -0.04859727 0.0018228075 0.024105014
full -0.007851255 0.026983144 0.02749886 -0.065520525 0.010086798 0.06855273 0.029979743 0.09151234 0.031030325 -0.024037404 0.06074879 0.087935135 0.019148938 -0.012753899 0.05778235 -0.06317286
friends -0.08008067 0.11055688 0.12191756 -0.02047586 0.044599388 0.010451671 -0.003516969 -0.03875071 -0.024270497 -0.13160622 0.12732872 0.078410186 0.025144773 0.13052969 -0.011944359 -0.008280998
camera 0.16095161 0.015045202 -0.05742332 -0.041122995 0.05181738 0.12081805 0.16464204 -0.0069739264 -0.073435426 0.038520608 -0.0025194678 0.095840245 -0.07912416 -0.039497565 -0.060177293 -0.11727786
truly -0.16745226 0.12558442 0.03320536 0.123367235 0.03769427 -0.098409005 -0.0913897 -0.10624065 0.099938 -0.11135013 0.028191445 -0.084901795 0.09465971 0.11633114 0.075125985 0.111444734
women -0.10760925 0.095762834 0.08415644 0.07267382 0.026621219 -0.07111582 -0.113434166 -0.10074081 0.11087836 -0.050264545 0.06915384 0.06920707 0.113214634 0.13135938 0.08836848 0.10399162
awful -0.0034446106 0.042634428 0.13428459 -0.09070047 0.1201551 0.052981514 0.027491653 0.03485954 0.0901063 -0.18761852 0.04512393 0.07677724 0.1764196 0.12130072 0.003366204 0.07140084
video 0.023851205 -0.047274023 0.10776474 -0.14801952 0.16261351 0.098739274 0.075842 0.050350346 0.08325582 -0.021533405 0.1502775 0.10190599 -0.04796783 0.0017677072 -0.061359998 -0.07823279
next 0.042813703 0.03810162 0.047419526 -0.007130142 0.04895466 0.027543744 0.05845386 -0.04178363 -0.0118579725 -0.013282121 -0.0165724 0.021142147 0.038302038 -0.022099106 -0.014043372 -0.014242644
tell -0.01113825 -0.00035464537 -0.03623476 0.013982109 0.024945613 0.039337113 0.0052429405 0.004706526 0.02787804 0.054587793 0.05160357 -0.016014935 -0.0011273996 -0.026871635 -0.019824088 0.019616973
remember 0.009357172 -0.010805359 -0.01807446 -0.002464054 -0.048052378 0.002914795 -0.019697765 -0.018413022 -0.05162136 0.03206281 0.004927662 0.028780738 -0.01355098 -0.06809033 -0.0008050753 0.03346607
couple 0.027809666 -0.018830713 -0.07889147 -0.020468153 -0.02630436 0.04272464 0.08526659 -0.07449526 -0.1128634 0.10941424 -0.11231797 -0.01930478 -0.037493035 -0.06710377 -0.07651995 -0.08766425
stupid 0.010009856 0.058496185 0.15366866 -0.13886659 0.068257816 0.025284635 0.03532702 0.0688638 0.129384 -0.1277745 0.15803796 0.087323114 0.070421435 0.065654546 -0.024759881 -0.0031899046
start -0.052784894 0.0161314 0.020370165 0.036810156 -0.023628458 -0.11469602 -0.13904676 -0.086860366 0.034371115 0.015513835 -0.00048382333 -0.051650427 -0.001512994 0.049648236 0.09554958 0.09250874
stars -0.066317886 0.04291297 0.12067682 0.019071767 0.087511435 -0.010321507 -0.026202833 -0.071652874 0.04656094 -0.04533291 0.10405398 0.1341651 -0.008435856 0.09782993 0.05953832 0.05297174
perhaps -0.06611839 0.03967352 -0.042129282 0.05653632 0.008223989 -0.09757267 -0.008295512 -0.06245112 -0.090255074 0.009825196 -0.042341117 -0.035006065 -0.0525028 -0.117233396 0.035710156 0.10761828
sex 0.04961823 -0.070305154 0.04186208 -0.11871522 0.096713215 0.093474604 0.11942552 0.10515198 0.015911797 0.07310269 0.087045304 0.1865022 -0.10416289 -0.043918014 -0.09574483 -0.054857526
mean -0.009866418 0.03400896 0.09741773 -0.036975775 0.09225028 0.06414919 0.01613406 -0.00715471 0.12485155 -0.118912406 0.19895898 0.18672426 0.09114554 0.12195568 -0.03065385 -0.048293654
came -0.017963937 -0.04587523 0.008151303 0.055219527 0.03029865 0.026594602 0.0149996 -0.012993144 -0.07965613 0.0042749024 -0.005565904 0.031364024 -0.00411398 -0.032607764 -0.06274423 -0.05916886
recommend 0.070675254 0.03943523 0.042599324 0.008771775 0.02265539 0.013324972 0.102640405 0.027353238 0.0038546438 0.00019943627 -0.021767894 0.09424533 -0.07748728 -0.09766122 -0.006818385 0.016516605
let -0.016653981 -0.050579216 -0.008369412 -0.07283399 0.07705634 0.06569587 0.080647334 0.04052612 -0.009810305 -0.037941124 0.07059413 0.049786106 0.0022533496 -0.021640409 -0.026902221 -0.023381528
moments -0.03574873 0.03352298 0.053178854 -0.0678704 0.053741675 -0.021783983 0.0077171475 0.04840451 0.033899136 -0.04991354 0.048539225 0.060410403 0.05331393 0.030276127 0.09057126 0.009447106
wonderful 0.028383596 0.008325339 -0.05124346 0.010989702 -0.020551413 0.046059486 0.047252133 -0.0067763696 -0.07045127 0.05653253 -0.01638928 -0.05986054 -0.06400869 -0.13863729 -0.096904166 0.00823859
episode -0.12333776 0.12760809 0.026777655 0.06709016 0.06913188 -0.039310604 -0.089785874 -0.09506995 0.09285614 -0.10652662 0.09752154 0.036927607 0.091265626 0.086432375 0.09584363 0.053340096
understand -0.007929111 0.08831134 0.13069329 -0.13738786 0.11991293 0.016123 -0.0057743075 0.09366819 0.04512933 -0.05508535 0.07110452 0.106138244 0.07811083 0.045708545 0.036443733 -0.05172235
small 0.016307203 0.059580464 0.13443568 -0.051600482 0.06043293 0.039234422 0.027925929 0.11259298 0.14614417 -0.18115123 0.06637696 0.08565553 0.15362738 0.04067863 0.047606945 -0.024848575
face 0.049178135 -0.04980745 -0.057955008 -0.027542558 -0.07994052 0.03661196 0.08556303 -0.0047956887 -0.070110954 0.098175816 -0.0850294 -0.11672054 -0.05806632 -0.13713564 -0.073692456 -0.053072825
terrible -0.07782775 0.0899339 0.061230462 0.032442197 0.01392745 -0.028971 -0.07675916 -0.11624852 0.084638 -0.11636701 0.11310927 0.05030946 0.12321086 0.13899331 0.09317354 0.11120959
playing -0.024962187 0.0009457977 0.018892467 0.029909847 -0.073068686 0.0048223496 0.0048346235 -0.059925966 -0.02282612 0.045670763 -0.078977115 0.0022457363 -0.03243107 -0.061370034 0.05273961 0.017000925
school 0.0146914115 0.111327976 -0.0137917455 0.06436354 0.048463266 -0.04113989 -0.06749968 -0.07502999 0.045320828 -0.01931482 0.001555563 -0.025258463 0.08993458 0.100667514 0.0947313 0.058334406
getting 0.12375635 -0.046694227 -0.037899423 -0.0027543472 0.03469135 0.044441905 0.11191164 0.0020387059 -0.024736186 -0.013002234 0.021103209 0.05970388 -0.038744442 -0.026646312 -0.0884118 -0.017825048
written -0.057633754 0.123307526 0.09128542 -0.031398673 0.08339208 0.053015858 -0.06647098 0.11751191 0.102299765 -0.09235213 0.10519509 0.06653848 0.10026532 0.13946575 0.053525276 0.017836424
doing -0.057778403 0.11063773 0.069628604 0.050474312 0.02140331 -0.05514206 -0.05818559 -0.08054526 -0.018237073 -0.07051637 0.036427077 0.06986353 0.03863253 0.049523424 0.0058625652 0.07495054
often 0.09411862 -0.11202694 -0.09953347 0.034032114 -0.0060162917 0.09570222 0.1518583 -0.038573127 -0.12817 -0.00824632 -0.11101668 0.030454898 -0.1427188 -0.105734184 -0.16685678 -0.0657691
keep 0.11625022 -0.054710556 -0.06890281 -0.0462358 0.0013983038 0.074589714 0.04587731 -0.073519126 -0.050173856 0.07736856 -0.0022018256 0.05534753 -0.07892736 -0.105135866 -0.10042704 -0.06474772
early -0.06422922 -0.078109846 -0.09035589 0.043894608 -0.032343898 -0.11214502 -0.026830344 -0.018698672 -0.044224318 0.049437966 -0.10828578 -0.10686678 -0.07640924 -0.08727905 0.000620783 0.05224016
name 0.035481144 0.03587503 0.12246719 -0.18186487 0.09622134 0.14816807 0.13336593 -0.034580477 0.030683942 -0.05607875 0.14285538 0.20912494 0.03330572 -0.019718245 -0.10150834 -0.07743678
perfect 0.036416456 -0.0466038 -0.029767735 -0.021065377 0.001703813 -0.05098378 0.07037555 -0.04551279 -0.016158924 -0.0026539883 -0.041096587 -0.020286698 -0.02943303 -0.045161847 -0.0043984097 -0.032536287
style 0.025787327 -0.04423119 0.0011555301 -0.04329659 0.0069717327 0.09229402 0.06206876 0.031800672 -0.011593732 0.026958168 -0.0060770675 0.041731667 -0.01985419 -0.08171021 -0.03509123 -0.05550946
human -0.03792618 -0.021972869 -0.04461944 -0.0022622466 0.06276189 -0.0002661237 0.018442163 -0.011111346 0.022666927 -0.008805339 0.034977723 -0.043458816 0.0006574794 0.015398659 0.032613084 0.04968891
definitely 0.018954968 0.00047648826 -0.093263604 0.064107776 -0.038298134 -0.10179152 0.040201567 -0.13422126 -0.04566635 -0.021887342 -0.055369325 -0.01542238 -0.062041435 -0.03532419 0.0102666775 0.024090094
gives 0.08370153 -0.07908602 -0.02890256 0.007765585 -0.05127801 0.088174686 0.10047482 -0.041982885 -0.049033638 0.03146747 -0.07294076 0.044448733 -0.11334609 -0.068072155 -0.115327984 -0.06842088
others -0.05639823 0.057085905 0.05719896 -0.027055858 0.10095463 -0.0053449697 -0.032954145 -0.039999243 0.03381211 -0.15623802 0.08636919 0.0809446 0.09001314 0.100320175 0.0046806503 -0.03995204
itself -0.08419252 0.024510778 0.0057610045 0.049961183 0.018313099 -0.036978107 0.032431915 0.0077896058 0.0056361523 -0.08101905 -0.02051319 0.0051917313 0.052473716 0.020562844 0.083590485 0.044052042
lines -0.07728005 0.111053 -0.045431238 0.054273754 0.03694656 -0.02772023 0.10698647 -0.105777554 -0.08275196 -0.04031903 0.03256039 0.04767394 -0.07281221 -0.03844296 -0.0337182 0.10520034
live 0.0013868138 -0.040344052 0.019967327 -0.030989053 0.07182717 -0.01044752 0.018349724 0.000941782 0.016800353 -0.013796308 0.0069018216 -0.031494644 -0.021033151 -0.011330262 -0.021311533 -0.030873392
become -0.031392653 0.01883367 -0.07003529 0.094613 -0.06304523 -0.0790477 -0.0388626 -0.068702735 -0.03561243 0.058458313 -0.08884182 -0.032688927 -0.026137635 0.0080582 0.10361408 0.066752754
dialogue 0.071130194 -0.02859179 -0.020233039 -0.052468 0.05122711 0.053836375 0.0663752 0.0033326996 0.029871304 -0.0559919 -0.008701416 0.02254495 0.0106863 -0.06287353 -0.11930576 -0.09590242
person -0.010260301 -0.034722492 -0.020689521 -0.110526 0.02205632 0.09660001 0.0382955 -0.010511086 0.022393648 0.03467716 -0.0014263733 0.084376335 -0.038137034 -0.03514557 -0.041752227 -0.029159846
lost 0.02906937 -0.026415179 -0.0031609288 -0.040977694 0.008584826 0.04474456 0.018228184 -0.0021544765 0.015271753 -0.014668245 0.022718044 0.09817032 0.011699911 -0.04010705 0.019348802 -0.027038116
finally 0.017481128 0.04689475 0.056292553 -0.083534285 0.018066026 0.016256513 -0.030017203 0.028110124 0.015620592 -0.03332095 0.017956963 -0.008662281 0.058179688 0.06565386 0.07404587 0.0113021135
piece -0.10038544 0.11863834 0.11889983 0.004956908 0.1316037 -0.12090864 -0.099530995 -0.09273551 0.16254652 -0.20743518 0.09566673 -0.0074633774 0.098608084 0.1432114 0.16131598 0.12710662
head -0.21404527 0.15780646 -0.002132145 0.0119288275 -0.0040633716 -0.14433077 -0.1613219 -0.049091764 0.04599622 -0.059508257 -0.027116254 -0.14061545 0.067320265 0.08901093 0.17668448 0.14483796
case -0.10798211 0.08437376 0.16844034 0.038597655 0.055235077 0.016087428 -0.012541422 -0.033809796 0.09794155 -0.12453879 0.10112618 0.14525951 0.053305767 0.070219986 0.007866355 0.03858029
felt 0.026915614 -0.09444189 0.054462206 -0.056396127 0.103492506 0.07544809 0.08492376 -0.005980885 0.03719227 -0.0017795638 0.0125695 0.028081812 -0.040400807 0.030656844 -0.03980351 -0.06681185
yes -0.084819555 0.085259795 -0.013194535 0.08639635 -0.0968694 -0.055519417 -0.07682482 0.020097815 -0.003364358 0.030509748 -0.0068120686 -0.08968329 -0.012314948 -0.005773135 0.09725653 0.0056494316
liked 0.020880515 -0.033640187 0.006254337 -0.04096482 0.06309482 0.049529113 0.04068341 0.030175488 0.024211105 -0.003211366 0.03936085 0.13274309 -0.046327975 -0.01167822 -0.0140779875 -0.058583725
supposed -0.1393889 0.060176086 0.07065443 0.031315476 0.06295412 -0.02331585 -0.11208069 0.014813995 0.048039645 -0.01854273 0.03022694 -0.03994286 0.10503778 0.076616235 0.14662649 0.048363
title 0.026283164 0.03384054 0.07033589 -0.101211295 -0.004159774 0.09649617 0.005426391 0.032851264 -0.016200826 -0.06342593 0.029354427 0.07034947 0.043288432 -0.018636702 -0.0007554266 -0.034215644
couldn't -0.07932886 0.027650984 0.07151242 -0.0041254973 0.07411244 -0.06281034 0.004307261 -0.013285371 0.017183514 -0.047966693 0.051977813 0.028485762 0.0862255 0.044305656 -0.029832857 0.06779289
absolutely -0.083532475 0.12815304 0.0016540742 0.086888134 0.023160629 -0.038863774 -0.024020398 -0.06506319 -0.034881137 -0.047282323 0.031462185 0.029933628 -0.007507954 0.028624846 0.015654525 0.10440287
white 0.11485118 0.0064846273 -0.028614614 -0.007262186 -0.0050356644 0.051080506 0.018310659 0.008236795 -0.02835555 -0.0059991074 0.028496586 0.043985125 -0.07316866 -0.05435824 -0.103388675 -0.01420746
against -0.08276751 0.018645363 -0.06199653 0.092874005 -0.12869298 -0.0806432 -0.05019434 -0.06222764 -0.07075175 0.059731387 -0.0764614 -0.119986385 -0.07768498 -0.001941964 0.038224682 0.0972949
boy -0.0046531027 0.044431597 -0.05376179 0.07551263 -0.043945786 -0.06671068 -0.036356416 0.016067393 0.023853661 -0.015800785 -0.009634902 -0.08321717 0.008753101 -0.03725379 0.065941766 0.045974225
picture -0.010128418 -0.0069676214 -0.023958065 0.041435156 0.006793331 -0.049967196 0.014282875 -0.034058396 -0.009039197 0.019996969 -0.0059175543 -0.05758738 -0.04219398 -0.06558045 -0.01556403 -0.0013378656
sort -0.023933684 -0.035170916 -0.06883902 0.061729714 -0.057619873 -0.016096497 -0.015716711 -0.10648294 -0.10681891 0.098329835 -0.09030264 -0.09574253 -0.10978901 -0.059850473 -0.02232539 0.059070636
worse -0.023793872 0.052180853 0.034244224 -0.08718172 0.046781205 0.025855836 0.02714192 -0.04513712 -0.041884873 -0.056576833 0.07135263 0.07475494 0.032812506 0.0009907814 -0.03651274 -0.031381458
certainly 0.02992527 -0.06466863 -0.017861014 -0.038400847 0.02349839 -0.00946018 0.06876951 -0.00880039 -0.010405951 -0.0023650692 0.03084343 0.044232864 -0.014357015 -0.08654284 -0.0039344723 -0.016257357
went -0.11399187 0.09193994 0.06705158 0.039077457 0.009176481 -0.09611642 -0.1491409 -0.07294122 0.026985547 -0.075708635 0.043431353 0.025314087 0.08396178 0.09764224 0.03740826 0.0735052
entire 0.04118757 -0.040603362 0.1609917 -0.1973361 0.09210607 0.12704661 0.055761013 0.11877145 0.048823815 -0.115797356 0.09391052 0.1961956 0.09152866 0.021534955 0.020065324 -0.11371945
waste -0.18463711 0.15482001 0.20535365 -0.15945755 0.25128445 0.025397288 -0.088905424 -0.005402496 0.11683503 -0.17424552 0.19632804 0.09775804 0.20123926 0.27690023 0.11808082 0.052197803
cinema 0.0010004672 0.072143696 0.068838686 -0.032408446 0.03625504 0.03926172 0.026015157 -0.11663442 -0.00018604935 -0.02001333 0.05356286 0.16954462 0.007889624 0.011293221 -0.007249747 -0.039362993
problem -0.076378 -0.06923512 -0.091418006 0.10716531 -0.054816585 -0.033793088 -0.06888577 -0.09050394 -0.07390434 0.037156068 -0.06950094 -0.07875662 -0.030310556 -0.04500829 0.0056322766 0.058238428
hope 0.057031892 -0.027969463 0.020863326 -0.016209738 0.033287708 0.078185156 0.059437335 -0.013868454 0.024054958 -0.038700078 0.06701762 0.005452349 0.0153287705 0.047007877 -0.01689299 -0.0652701
entertaining -0.015019434 -0.0029853892 -0.005429484 -0.05283171 0.07580025 0.059733495 0.027678855 0.057112228 -0.008404291 0.004711836 0.075976916 0.0636096 0.00540365 -0.019059502 0.008137138 -0.041372932
she's -0.024841191 -0.017127821 0.07772923 -0.064306095 0.042096585 -0.007893011 0.029431613 0.06706609 0.026599143 -0.0075222733 0.052150395 0.039426606 0.05487031 0.0006438804 0.034824673 0.015713418
mr -0.029941302 0.03262492 -0.013413702 0.021402065 -0.04208766 -0.081533976 -0.04958994 0.041141983 0.03371299 0.031920742 -0.057780154 -0.051067747 0.05874983 0.06180786 0.08338534 0.0125184655
overall -0.061186023 0.088036135 -0.03609429 0.055066213 -0.022790078 -0.012904992 -0.070894465 -0.05079807 0.012500973 0.031748712 0.030922947 -0.03579995 -0.0045477333 0.004340263 0.029901737 0.06706433
evil -0.12861565 0.07993522 0.020895008 0.12259633 -0.06616749 -0.09609046 -0.119178675 -0.07497203 -0.024378201 -0.07528299 -0.016581912 -0.05746839 0.003267321 0.002235527 0.08088769 0.08594126
called -0.021359911 0.11650726 0.06498383 -0.030620798 0.08937612 -0.08055822 -0.03929092 0.052499093 0.11495994 -0.10722867 0.03477326 -0.053156536 0.06868997 0.03868388 0.021872979 0.048401784
loved -0.13804296 0.115989886 0.06874095 0.021531068 0.0041214563 -0.09824914 -0.16222443 -0.027374025 0.12509015 -0.11216163 0.07744578 -0.098727345 0.10687995 0.11793406 0.11030602 0.049198933
based -0.10295116 0.078160465 0.0016635816 0.071248166 0.03785008 -0.07441354 -0.045146435 0.035975568 0.07150316 -0.048832484 0.042961452 -0.0711229 0.066240825 0.09257678 0.1298383 0.11582993
oh 0.09078888 -0.11839605 0.040064782 -0.07027105 0.11019514 0.12665784 0.0680549 0.07794298 -0.040455084 -0.065246716 0.028842164 0.07879722 -0.04746932 -0.007054546 -0.10009052 -0.12314815
several -0.17066045 0.13678981 0.0337101 0.0071253646 -0.016279874 -0.11481975 -0.08501304 0.053464856 0.053509884 -0.051890705 -0.0070612757 -0.048134282 0.015853483 0.0943067 0.123823486 0.10243473
fans -0.04551157 0.13072465 -0.018900804 0.06293888 -0.13817976 -0.022221487 -0.096311964 -0.14499177 -0.1049381 -0.051973708 -0.114969596 0.03677904 -0.062057078 -0.025974512 -0.045422934 0.10052127
mother 0.022856822 -0.003532041 0.061291438 -0.07382273 0.07610243 0.08289195 0.11855553 0.058708366 0.04961439 -0.057599094 0.07393132 0.0780504 -0.034152877 -0.021791326 -0.07607743 -0.07252562
drama -0.10591391 0.07205742 0.039643936 0.05571148 0.0544491 -0.06797543 -0.06565037 -0.011810069 -0.0046661687 -0.065126315 0.0527474 0.019841516 0.025908582 0.03155732 0.11882838 0.14394177
beginning -0.058613457 -0.0018780623 -0.08039563 0.06386537 -0.096338965 -0.08119008 -0.024046948 -0.112462565 -0.050395 0.091683455 -0.09478713 -0.024395728 -0.04585779 -0.09851897 -0.007124428 0.05881166
killer -0.021677284 -0.009101344 0.033726364 -0.08321086 0.09460695 0.051997736 0.06687666 0.090704255 0.08238629 -0.014453842 0.04124405 0.12033747 0.09453287 0.08167761 -0.05641504 -0.056169122
lives -0.124750026 0.13203317 0.07727055 -0.025426215 0.015524883 -0.03251111 -0.08412145 0.000192576 0.04984413 -0.119182594 0.07842275 -0.04691284 0.07432151 0.1252737 0.03061798 0.04819287
5 -0.04141093 0.008449714 -0.021173086 0.045629494 0.058066636 0.016538769 0.016552702 0.01697648 -0.037792686 0.07433353 -0.022697572 0.11023321 -0.046871148 -0.07299223 -0.036171153 -0.016522001
direction 0.05110485 0.07116408 0.048839726 -0.044557326 0.008633549 0.02530629 0.045510642 -0.097061835 0.00013785281 -0.07839749 0.0035631391 0.10469246 -0.06280625 -0.06310342 -0.05612889 0.02277449
care -0.018439282 0.05477277 0.057272457 -0.08611497 0.01907956 0.064650305 0.0322187 -0.009198088 0.01613189 -0.02561442 0.023034057 0.11212549 0.04697212 0.008938639 0.025127482 -0.07550665
already 0.038701385 0.021207958 0.08541354 -0.08380961 0.065922536 0.0558705 0.038399395 0.06666769 -0.0068130516 -0.02733372 0.061536737 0.10794155 -0.016439639 0.01171658 -0.038955558 -0.057210278
becomes 0.03262512 -0.059652615 -0.097182766 0.008734251 -0.004118468 0.077725776 0.048235312 -0.039245646 -0.015315071 0.022959324 -0.058362734 0.03878371 -0.074421875 -0.024837054 -0.097406834 -0.072088085
laugh 0.0742534 -0.007944583 0.13973388 -0.101833515 0.15526111 0.14959106 0.08251676 0.11080423 0.05079165 -0.1389943 0.13304561 0.16110417 0.11732721 0.07816966 -0.029196255 -0.09945714
example 0.09290389 -0.10051203 -0.05093306 0.020522209 0.018445382 0.04680018 0.054644264 -0.031488195 -0.0027399645 0.037384287 -0.046776593 0.06805382 -0.050796907 -0.07634263 -0.031177662 -0.033349
friend 0.08276425 -0.07915631 -0.047721576 -0.028619021 -0.047599442 2.1720276e-05 0.049602937 -0.060331766 -0.01651153 0.05684531 -0.07797303 -0.031292032 -0.08515449 -0.10243166 -0.061555304 0.0058944724
dark -0.16906391 0.061608445 0.017906992 0.11288444 -0.010438948 -0.06809894 -0.12286034 -0.034244496 0.0729701 -0.050391592 -0.036419008 -0.10056092 0.008754319 0.042264022 0.10279203 0.09492175
despite -0.069972515 0.094883226 0.061704375 0.018872853 0.024428513 -0.05017449 -0.1280319 0.017626617 0.09045024 -0.053943783 0.05401086 -0.09428643 0.010307474 0.016676955 0.0783471 0.06709532
under 0.015465882 0.018405313 0.018899743 -0.0043721944 -0.012350972 0.08073068 0.020470845 0.101503536 -0.03362843 0.004559232 0.054891843 0.027371278 -0.06188151 0.019565549 -0.0454856 -0.029210014
seemed -0.0073304265 -0.031300925 -0.021450775 -0.021850599 0.039008524 -0.036063876 -0.044887103 0.07089511 0.046827905 -0.062279016 -0.025291577 -0.036877953 0.058755297 0.009905533 -0.0033399132 0.03778383
throughout 0.011194448 -0.007735525 -0.056549825 -0.027937908 -0.006520758 0.031269267 -0.03834007 -0.037459806 0.042729583 0.0063585844 0.01204761 -0.029109132 -0.014672824 0.014049475 -0.03853242 -0.024472201
4 -0.19904658 0.18140082 0.10504941 0.16152507 -0.013881473 -0.121223256 -0.15625061 -0.14731534 0.068953186 -0.047795326 0.12311158 0.004716995 0.13701658 0.14600374 0.14764628 0.104922354
turn 0.08697362 0.0055542784 0.053274967 -0.06740178 0.017169222 0.01138174 0.05228455 0.11826897 0.1059163 -0.0853735 0.08675424 0.054296292 0.05197689 0.030280232 -0.01942539 -0.071991235
unfortunately 0.057614394 -0.0015713563 -0.005756357 -0.030560097 8.8762594e-05 0.022768058 0.034331072 -0.1347547 -0.028832389 0.00012101981 -0.0148599325 0.037104975 -0.013498591 -0.06523387 -0.09011227 0.04971511
wanted -0.064671695 0.13573073 0.040604737 -0.013845473 -0.006135644 -0.05726378 -0.05401011 0.008455181 0.13018598 -0.05251673 0.07555342 0.014991318 0.057383236 0.0835695 0.114155255 0.13035224
i'd -0.0003398418 -0.15463729 -0.11362717 0.09442402 -0.10986204 -0.033370655 -0.004902054 -0.14597638 -0.13923556 0.06558429 -0.10520689 -0.054809403 -0.14308104 -0.12630881 -0.03654073 0.00013922939
 0.06082794 -0.0007971235 -0.04033074 -0.0017168857 0.059572894 0.031247476 0.016716396 -0.004369564 0.022874482 -0.031448122 0.04798028 0.041145105 0.0054868828 -0.08072447 -0.021943092 -0.07314536
children -0.0012663021 -0.071270585 -0.0068910494 -0.021718754 0.09034919 0.027368173 0.05214661 0.07512531 -0.029901324 0.059250515 -0.027563814 0.032881986 -0.0719451 -0.10413878 -0.026272463 -0.03248261
final 0.03211252 -0.011553849 -0.061979726 0.033822987 -0.05278771 -0.031913858 -0.019273628 -0.12675464 -0.07421296 0.004369726 -0.055700127 -0.026879638 -0.064103134 -0.08302615 -0.0006667979 0.010839184
fine 0.025879934 -0.12520853 -0.18409085 0.05696492 -0.09128861 0.037008375 0.0748206 -0.121635 -0.15109032 0.15769137 -0.11059047 0.007965249 -0.15760662 -0.16657712 -0.122246586 -0.003800318
history -0.019179575 0.09480336 0.07062914 -0.089763306 0.14046535 -0.020515785 0.060762327 0.0034406919 0.09472296 -0.082005166 0.16737519 0.10578197 0.016356995 0.011103253 0.044169 0.03210371
amazing 0.12875417 -0.06249092 -0.037374347 -0.07365098 -0.062423393 0.04562531 0.06850937 -0.0021895368 -0.0972357 0.05994797 -0.06005608 0.1250081 -0.119984284 -0.13894297 -0.08294426 -0.022650424
sound 0.06947894 -0.065287426 0.057580646 -0.15437981 0.03188104 0.052609168 0.10455624 0.019310972 0.021702796 -0.01345923 0.038245596 0.12974688 -0.04805509 -0.021180345 -0.0041514114 -0.03771895
guess -0.0817098 0.050701685 0.040895637 0.075503945 0.046810914 -0.08388595 -0.0074248062 -0.036988787 0.061390582 -0.08065504 0.11812989 0.053540017 0.091484606 0.11633487 0.053310126 0.10210058
heart 0.055912387 -0.10879451 -0.047359925 -0.061416477 0.025570365 0.07276916 0.08750398 0.05475804 -0.033435587 0.05220587 -0.021232493 0.076545715 -0.039899796 -0.054522485 -0.07179897 -0.059367508
totally 0.027023004 -0.05271198 0.11016758 -0.12582156 0.013483473 0.12144916 0.011167663 0.08093305 0.089465946 0.015202493 0.13078287 0.071353436 0.03342584 -0.020654455 -0.030205864 -0.117046855
lead 0.07558022 -0.123897284 0.047671244 -0.0803747 0.05199313 0.06396691 0.036297843 -0.019848889 -0.022373414 0.012200207 -0.028740196 0.0950847 -0.08146014 -0.052253667 -0.04248366 -0.08494805
humor 0.009434863 -0.061409976 -0.020028088 0.00042046426 0.05047639 0.022902101 0.05624646 0.06838461 0.038048428 0.056394543 -0.022287646 0.065494835 -0.11105018 -0.08025151 0.0052413004 -0.07588329
writing 0.044578366 0.0048528234 0.020035323 -0.05405334 0.10734052 0.088900685 0.06950348 0.035208225 0.00052501546 -0.09093577 0.015276293 0.04683974 0.06325908 0.020804571 -0.031740293 -0.07332331
michael -0.04429198 0.07183814 -0.013250477 0.05637882 -0.04416265 -0.06445649 -0.067378685 -0.025423432 0.065627046 -0.04148983 0.02374625 -0.0217026 0.027290806 0.033569522 0.008025169 0.014806476
quality 0.11827456 -0.09338443 0.029519347 -0.20738839 0.12896188 0.119060494 0.1558584 0.036305282 0.01095227 -0.011724972 0.12867758 0.19415553 -0.015249717 -0.0058407765 -0.091192275 -0.13831879
you'll -0.0154844085 0.02884137 0.046871416 -0.1100226 0.13377738 0.10438983 0.08184515 -0.013028951 0.043242525 -0.116633505 0.06634813 0.10744905 0.057194103 0.015072015 -0.04900781 -0.07156359
close 0.11863151 -0.122520305 -0.06353296 -0.059610702 -0.09006498 0.067634955 0.15603632 -0.099118635 -0.07123215 0.05903322 -0.04491894 0.1345283 -0.114654616 -0.0615006 -0.10764193 -0.0659637
son 0.055340253 -0.09148482 0.06582786 -0.11181453 0.11245791 0.062308054 0.10093973 0.028816193 -0.023120688 -0.014241471 0.09136121 0.07813088 -0.07879287 -0.04501425 -0.046641897 -0.06283168
guys -0.008471274 -0.045424335 0.011347399 0.0066310368 0.018221924 -9.123795e-05 0.08910561 -0.020235812 -0.03768335 -0.031792484 -0.03463638 0.03259454 0.024950253 -0.0009772134 0.012638576 0.018976223
wants 0.031847183 -0.063691676 0.026565468 -0.0063470057 0.013946281 0.09359385 0.09698814 0.018057983 -0.074165575 0.056848884 0.04705071 0.060450852 -0.090024374 -0.026283037 -0.026872683 -0.029204313
works 0.013609145 -0.03143086 -0.031548325 -0.07635319 0.02459925 0.046023432 0.05566109 0.116288535 -0.009527732 0.01728488 0.05714132 0.09329045 -0.06774351 -0.12311851 -0.017605165 -0.072194904
behind -0.09953069 0.0845044 0.064263664 0.04569992 0.07601419 -0.053806588 -0.0727388 0.01823354 0.030408628 -0.10767337 0.025869315 -0.05400988 0.103936434 0.04336927 0.06314186 0.10718079
tries -0.07061445 0.04775111 0.030079726 0.011104767 -0.012775972 -0.054163583 -0.024424378 0.006953403 0.04266492 -0.059609152 0.069167845 -0.018009672 0.016358892 0.01900568 0.059323914 0.021265214
art -0.08571698 0.15803489 0.09312595 0.049682755 0.06516889 -0.06327616 -0.094207846 -0.0188865 0.08514898 -0.16422795 0.1258982 0.026428824 0.11975821 0.14109504 0.07399858 0.09625441
side 0.02289084 -0.01370936 -0.025536552 0.014831153 -0.012688325 0.011001291 -0.011931785 -0.029245432 -0.0117873475 -0.020567542 0.01252315 -0.06453742 0.0045842915 -0.07487493 0.025094602 -0.020802468
game -0.02320924 0.08601756 0.07532394 -0.0075726644 0.013262669 0.010601284 0.0045995247 0.034623526 0.054713707 -0.0716679 0.00041744186 0.08098068 0.00014980872 0.03271512 0.04835491 -0.0031600264
past -0.0065554865 0.07924533 0.057855796 -0.020064222 -0.03725595 -0.054559305 -0.030587692 0.029360563 0.10149453 -0.07303527 -0.01388364 -0.044637315 0.09519319 0.09168651 0.01941185 0.046824735
able -0.03248208 -0.003577887 -0.04465084 0.03510005 -0.042104263 -0.02736909 -0.05569842 -0.03316718 -0.02034523 0.005876316 -0.008759179 -0.05534884 -0.05345955 -0.0406205 0.022224138 0.041568477
b 0.12703592 -0.04089234 -0.1312699 -0.06793885 -0.0455733 0.052307706 0.12529765 0.0029776876 -0.09892492 0.1181491 -0.11182231 0.09983045 -0.07260006 -0.08488885 -0.08971485 -0.06565114
days -0.15564378 0.10543999 0.06945577 -0.045314897 -0.004899859 -0.079839475 -0.10828727 0.095163465 0.10331611 -0.08744983 0.05270703 0.025554044 0.14930362 0.14524598 0.17722878 0.046183612
turns 0.0699957 -0.13811499 -0.0319703 -0.08419249 0.08517987 0.09838857 0.084528185 -0.035951447 -0.12618801 0.000508111 0.10028703 0.12219274 -0.016967053 -0.096306875 -0.06481674 -0.092720665
child -0.09823117 0.110666886 0.047861867 0.15360333 -0.08938223 -0.14822662 -0.13222007 -0.0766923 0.0512541 -0.08304449 0.080393754 -0.024085734 0.09300618 0.09920679 0.15296122 0.16921525
